{"learner":{"attributes":{"scikit_learn":"{\"_estimator_type\": \"regressor\"}"},"feature_names":["month","day_of_month","day_of_week","is_weekend","is_december","year","rcode","aampur_clean","aplace_clean","group_mean","group_std","lag_1year","lag_2year","rolling_mean_7d","rolling_mean_14d"],"feature_types":["int","int","int","int","int","int","int","int","int","float","float","float","float","float","float"],"gradient_booster":{"model":{"cats":{"enc":[],"feature_segments":[],"sorted_idx":[]},"gbtree_model_param":{"num_parallel_tree":"1","num_trees":"200"},"iteration_indptr":[0,1,2,3,4,5,6,7,8,9,10,11,12,13,14,15,16,17,18,19,20,21,22,23,24,25,26,27,28,29,30,31,32,33,34,35,36,37,38,39,40,41,42,43,44,45,46,47,48,49,50,51,52,53,54,55,56,57,58,59,60,61,62,63,64,65,66,67,68,69,70,71,72,73,74,75,76,77,78,79,80,81,82,83,84,85,86,87,88,89,90,91,92,93,94,95,96,97,98,99,100,101,102,103,104,105,106,107,108,109,110,111,112,113,114,115,116,117,118,119,120,121,122,123,124,125,126,127,128,129,130,131,132,133,134,135,136,137,138,139,140,141,142,143,144,145,146,147,148,149,150,151,152,153,154,155,156,157,158,159,160,161,162,163,164,165,166,167,168,169,170,171,172,173,174,175,176,177,178,179,180,181,182,183,184,185,186,187,188,189,190,191,192,193,194,195,196,197,198,199,200],"tree_info":[0,0,0,0,0,0,0,0,0,0,0,0,0,0,0,0,0,0,0,0,0,0,0,0,0,0,0,0,0,0,0,0,0,0,0,0,0,0,0,0,0,0,0,0,0,0,0,0,0,0,0,0,0,0,0,0,0,0,0,0,0,0,0,0,0,0,0,0,0,0,0,0,0,0,0,0,0,0,0,0,0,0,0,0,0,0,0,0,0,0,0,0,0,0,0,0,0,0,0,0,0,0,0,0,0,0,0,0,0,0,0,0,0,0,0,0,0,0,0,0,0,0,0,0,0,0,0,0,0,0,0,0,0,0,0,0,0,0,0,0,0,0,0,0,0,0,0,0,0,0,0,0,0,0,0,0,0,0,0,0,0,0,0,0,0,0,0,0,0,0,0,0,0,0,0,0,0,0,0,0,0,0,0,0,0,0,0,0,0,0,0,0,0,0,0,0,0,0,0,0],"trees":[{"base_weights":[-7.181782E-3,-1.0650039E0,6.924331E0,-1.8478466E0,7.2610843E-1,5.1898794E0,1.4098272E1,-2.2754433E0,-1.2022427E0,-4.8961278E-2,1.6456145E0,4.200557E0,7.243053E0,1.1875591E1,1.9548851E1,-2.5387113E0,-2.0438766E0,-1.4415736E0,-8.762433E-1,-2.7307194E-1,3.5051638E-1,1.1960381E0,2.297351E0,3.5455585E0,4.9246597E0,6.651906E0,8.45495E0,1.0699583E1,1.3643838E1,1.6573704E1,2.252712E1,-2.6252844E0,-1.19487084E-1,-2.172457E0,-1.8809514E0,-1.5194676E0,-1.0967613E0,-1.0556096E0,-6.5059304E-1,-5.029946E-1,1.5183686E-2,2.055371E-1,1.1805626E0,1.0223958E0,2.2419255E0,1.8400328E0,2.9194653E0,3.062956E0,4.2011056E0,4.5768247E0,6.632625E0,5.6293E0,7.227429E0,7.2139626E0,9.043447E0,9.982658E0,1.1704524E1,1.3240992E1,1.6820908E1,1.09633465E1,1.7028479E1,2.1337343E1,2.9359438E1,-1.3519798E-1,-1.2756424E-1,-1.1043453E-1,-1.0123118E-1,-9.9612765E-2,-8.80672E-2,-7.9006895E-2,-6.503219E-2,-7.6556E-2,-3.675115E-2,-4.752546E-3,-5.4906096E-2,-3.976175E-2,1.2543072E-3,3.0966884E-2,-2.7637303E-2,-8.789712E-3,5.2027714E-2,7.0476644E-2,7.575447E-3,8.404395E-3,9.836086E-2,4.1483887E-2,7.039885E-2,5.5694558E-2,1.5481794E-1,1.7380023E-1,8.792879E-2,1.2678461E-1,2.1870601E-1,1.1261012E-1,1.7548324E-1,1.9071065E-1,3.098317E-1,1.9260815E-1,2.515256E-1,2.6490337E-1,3.8355717E-1,4.316024E-1,2.59436E-1,5.1528895E-1,3.5442102E-1,4.82282E-1,3.3793473E-1,4.230821E-1,4.9238655E-1,6.5926224E-1,4.8697048E-1,5.4732877E-1,7.288493E-1,9.1439956E-1,6.466483E-1,6.597836E-1,9.955611E-1,5.917211E-1,7.358384E-2,7.749455E-1,8.973331E-1,1.5576192E0,1.0179834E0,9.5202535E-1,1.5314829E0],"categories":[],"categories_nodes":[],"categories_segments":[],"categories_sizes":[],"default_left":[0,0,0,0,0,0,0,0,0,0,0,0,0,0,0,0,0,0,0,0,0,0,0,0,0,0,0,0,0,0,0,0,0,0,0,0,0,0,0,0,0,0,0,0,0,0,0,0,0,0,0,0,0,0,0,0,0,0,0,0,0,0,0,0,0,0,0,0,0,0,0,0,0,0,0,0,0,0,0,0,0,0,0,0,0,0,0,0,0,0,0,0,0,0,0,0,0,0,0,0,0,0,0,0,0,0,0,0,0,0,0,0,0,0,0,0,0,0,0,0,0,0,0,0,0],"id":0,"left_children":[1,3,5,7,9,11,13,15,17,19,21,23,25,27,29,31,33,35,37,39,41,43,45,47,49,51,53,55,57,59,61,63,-1,65,67,69,71,73,75,77,79,81,83,85,87,89,91,93,95,97,99,101,103,105,107,109,111,113,115,117,119,121,123,-1,-1,-1,-1,-1,-1,-1,-1,-1,-1,-1,-1,-1,-1,-1,-1,-1,-1,-1,-1,-1,-1,-1,-1,-1,-1,-1,-1,-1,-1,-1,-1,-1,-1,-1,-1,-1,-1,-1,-1,-1,-1,-1,-1,-1,-1,-1,-1,-1,-1,-1,-1,-1,-1,-1,-1,-1,-1,-1,-1,-1,-1],"loss_changes":[8.10792E5,1.3452031E5,1.8210269E5,1.842664E4,2.079541E4,2.3922094E4,3.4295312E4,2.4430781E3,2.0741953E3,1.4176693E3,3.9076992E3,3.7578594E3,2.6897344E3,4.069125E3,6.9279375E3,2.3603906E2,4.436172E2,4.1029492E2,4.5521387E2,6.7231665E2,6.846095E2,1.4324287E3,1.5443223E3,1.3105E3,2.214125E3,1.4783125E3,8.4985156E2,7.635625E2,8.088594E2,8.7471094E2,2.6982656E3,6.221875E1,0E0,5.9476562E1,1.2208203E2,1.6401367E2,4.4353613E2,2.5609717E2,4.8779785E2,3.1543408E2,8.817787E2,3.150172E2,6.734812E2,5.024209E2,1.079896E3,4.1259375E2,1.27625E3,8.660137E2,1.3436719E3,1.0136172E3,8.422168E2,1.1908457E3,6.3216406E2,3.864922E2,3.125547E2,4.3248438E2,9.355547E2,8.827969E2,7.119297E2,2.6369434E2,2.5973438E2,2.7435E3,1.7701562E2,0E0,0E0,0E0,0E0,0E0,0E0,0E0,0E0,0E0,0E0,0E0,0E0,0E0,0E0,0E0,0E0,0E0,0E0,0E0,0E0,0E0,0E0,0E0,0E0,0E0,0E0,0E0,0E0,0E0,0E0,0E0,0E0,0E0,0E0,0E0,0E0,0E0,0E0,0E0,0E0,0E0,0E0,0E0,0E0,0E0,0E0,0E0,0E0,0E0,0E0,0E0,0E0,0E0,0E0,0E0,0E0,0E0,0E0,0E0,0E0,0E0,0E0],"parents":[2147483647,0,0,1,1,2,2,3,3,4,4,5,5,6,6,7,7,8,8,9,9,10,10,11,11,12,12,13,13,14,14,15,15,16,16,17,17,18,18,19,19,20,20,21,21,22,22,23,23,24,24,25,25,26,26,27,27,28,28,29,29,30,30,31,31,33,33,34,34,35,35,36,36,37,37,38,38,39,39,40,40,41,41,42,42,43,43,44,44,45,45,46,46,47,47,48,48,49,49,50,50,51,51,52,52,53,53,54,54,55,55,56,56,57,57,58,58,59,59,60,60,61,61,62,62],"right_children":[2,4,6,8,10,12,14,16,18,20,22,24,26,28,30,32,34,36,38,40,42,44,46,48,50,52,54,56,58,60,62,64,-1,66,68,70,72,74,76,78,80,82,84,86,88,90,92,94,96,98,100,102,104,106,108,110,112,114,116,118,120,122,124,-1,-1,-1,-1,-1,-1,-1,-1,-1,-1,-1,-1,-1,-1,-1,-1,-1,-1,-1,-1,-1,-1,-1,-1,-1,-1,-1,-1,-1,-1,-1,-1,-1,-1,-1,-1,-1,-1,-1,-1,-1,-1,-1,-1,-1,-1,-1,-1,-1,-1,-1,-1,-1,-1,-1,-1,-1,-1,-1,-1,-1,-1],"split_conditions":[6.714286E0,3.142857E0,1.3285714E1,2E0,4.428571E0,9.714286E0,1.9571428E1,1.4285715E0,2.5714285E0,3.857143E0,5.571429E0,8E0,1.1714286E1,1.5857142E1,2.3E1,1.2E0,1.7142857E0,2.7E1,1.2E1,1.2E1,2.8E1,2.8E1,1.2E1,1.2E1,2.7E1,1.1E1,8E0,1.2E1,2.9E1,8.689427E0,2.8E1,1.1428572E0,-1.19487084E-1,2.7E1,1.2E1,2.4285715E0,1.2E1,2E0,2.8E1,2E0,2.9E1,2E0,1.2E1,5.142857E0,1.2E1,2E0,2.7E1,9E0,2.9E1,9E0,1.2E1,2E0,7.785714E0,2E0,4E0,2E0,2.8E1,2E0,4E0,1.9142857E1,1.1E1,2E0,2.02E3,-1.3519798E-1,-1.2756424E-1,-1.1043453E-1,-1.0123118E-1,-9.9612765E-2,-8.80672E-2,-7.9006895E-2,-6.503219E-2,-7.6556E-2,-3.675115E-2,-4.752546E-3,-5.4906096E-2,-3.976175E-2,1.2543072E-3,3.0966884E-2,-2.7637303E-2,-8.789712E-3,5.2027714E-2,7.0476644E-2,7.575447E-3,8.404395E-3,9.836086E-2,4.1483887E-2,7.039885E-2,5.5694558E-2,1.5481794E-1,1.7380023E-1,8.792879E-2,1.2678461E-1,2.1870601E-1,1.1261012E-1,1.7548324E-1,1.9071065E-1,3.098317E-1,1.9260815E-1,2.515256E-1,2.6490337E-1,3.8355717E-1,4.316024E-1,2.59436E-1,5.1528895E-1,3.5442102E-1,4.82282E-1,3.3793473E-1,4.230821E-1,4.9238655E-1,6.5926224E-1,4.8697048E-1,5.4732877E-1,7.288493E-1,9.1439956E-1,6.466483E-1,6.597836E-1,9.955611E-1,5.917211E-1,7.358384E-2,7.749455E-1,8.973331E-1,1.5576192E0,1.0179834E0,9.5202535E-1,1.5314829E0],"split_indices":[13,13,13,13,13,13,13,13,13,13,13,13,13,13,13,13,13,1,0,0,1,1,0,0,1,1,1,0,1,9,1,13,0,1,0,13,0,1,1,1,1,1,0,13,0,1,1,1,1,1,0,1,14,1,2,1,1,1,2,14,1,1,5,0,0,0,0,0,0,0,0,0,0,0,0,0,0,0,0,0,0,0,0,0,0,0,0,0,0,0,0,0,0,0,0,0,0,0,0,0,0,0,0,0,0,0,0,0,0,0,0,0,0,0,0,0,0,0,0,0,0,0,0,0,0],"split_type":[0,0,0,0,0,0,0,0,0,0,0,0,0,0,0,0,0,0,0,0,0,0,0,0,0,0,0,0,0,0,0,0,0,0,0,0,0,0,0,0,0,0,0,0,0,0,0,0,0,0,0,0,0,0,0,0,0,0,0,0,0,0,0,0,0,0,0,0,0,0,0,0,0,0,0,0,0,0,0,0,0,0,0,0,0,0,0,0,0,0,0,0,0,0,0,0,0,0,0,0,0,0,0,0,0,0,0,0,0,0,0,0,0,0,0,0,0,0,0,0,0,0,0,0,0],"sum_hessian":[1.10576E5,9.5936E4,1.464E4,6.6758E4,2.9178E4,1.1791E4,2.849E3,4.0158E4,2.66E4,1.5833E4,1.3345E4,7.959E3,3.832E3,2.026E3,8.23E2,1.8788E4,2.137E4,1.5337E4,1.1263E4,1.0143E4,5.69E3,7.899E3,5.446E3,4.182E3,3.777E3,2.58E3,1.252E3,1.221E3,8.05E2,4.15E2,4.08E2,1.1872E4,6.916E3,1.1937E4,9.433E3,1.2508E4,2.829E3,6.273E3,4.99E3,5.642E3,4.501E3,4.845E3,8.45E2,6.776E3,1.123E3,3.141E3,2.305E3,2.412E3,1.77E3,3.141E3,6.36E2,9.33E2,1.647E3,4.07E2,8.45E2,7.19E2,5.02E2,7.19E2,8.6E1,3.3E1,3.82E2,3.51E2,5.7E1,5.737E3,6.135E3,9.576E3,2.361E3,4.878E3,4.555E3,9.788E3,2.72E3,1.284E3,1.545E3,2.66E2,6.007E3,4.11E3,8.8E2,2.39E2,5.403E3,3.795E3,7.06E2,2.07E2,4.638E3,3.7E2,4.75E2,4.52E3,2.256E3,4.85E2,6.38E2,1.47E2,2.994E3,1.826E3,4.79E2,8.59E2,1.553E3,1.485E3,2.85E2,1.213E3,1.928E3,2.81E2,3.55E2,1.17E2,8.16E2,6.8E1,1.579E3,6.1E1,3.46E2,4.97E2,3.48E2,4.7E1,6.72E2,4.01E2,1.01E2,3.8E1,6.81E2,4.2E1,4.4E1,3E1,3E0,1.5E2,2.32E2,2.9E1,3.22E2,8E0,4.9E1],"tree_param":{"num_deleted":"0","num_feature":"15","num_nodes":"125","size_leaf_vector":"1"}},{"base_weights":[1.1574053E-3,-1.0033033E0,6.61282E0,-1.752352E0,7.117594E-1,4.926253E0,1.3460201E1,-2.1603734E0,-1.1391101E0,3.0629229E-2,1.6566185E0,3.8164928E0,6.664155E0,1.1237899E1,1.8954222E1,-2.4136035E0,-1.939463E0,-1.4328074E0,-8.971016E-1,-2.524198E-1,4.4853568E-1,1.1378002E0,2.143313E0,3.6123714E0,5.4785533E0,6.144846E0,8.087423E0,9.991568E0,1.3073544E1,1.617368E1,2.1804333E1,-2.4960754E0,-2.2711132E0,-2.0661733E0,-1.7803463E0,-1.5724132E0,-1.263115E0,-1.0605439E0,-6.926234E-1,-3.4948894E-1,4.6547353E-1,1.2407905E-1,8.9967936E-1,8.044189E-1,1.5694776E0,1.7328922E0,2.6972785E0,3.0787911E0,4.20279E0,3.936284E0,6.371529E0,5.0419316E0,6.647336E0,7.3685956E0,9.247736E0,8.401882E0,1.0606765E1,1.2154809E1,1.4385393E1,1.4320699E1,1.7418463E1,2.066249E1,3.0110727E1,-1.2843923E-1,-1.213819E-1,-1.1411675E-1,-1.0907026E-1,-1.0671122E-1,-9.939003E-2,-9.0839975E-2,-7.4343316E-2,-8.1887715E-2,-7.0597254E-2,-6.887308E-2,-3.737857E-2,-7.5720446E-3,-5.507223E-2,-4.18959E-2,-1.1449127E-3,-2.4263814E-2,-8.173402E-3,-1.8323746E-2,5.1824875E-2,9.1957055E-2,2.1541852E-3,3.0094182E-2,1.0210698E-1,1.389027E-1,3.4372207E-2,6.403803E-2,1.4374627E-1,6.1793335E-2,9.929772E-2,1.1672708E-1,2.008395E-1,1.1830415E-1,1.682635E-1,3.2009062E-1,2.0485274E-1,1.5837777E-1,2.4668221E-1,4.5402622E-1,2.9657716E-1,3.9621314E-1,2.244852E-1,3.0744267E-1,3.646073E-1,3.1550914E-1,3.9678815E-1,5.865986E-1,4.4202897E-1,5.509243E-1,3.9147854E-1,4.800609E-1,5.912377E-1,8.548321E-1,5.8468246E-1,6.603937E-1,7.913658E-1,9.6972287E-1,6.695992E-1,8.236858E-1,9.621467E-1,1.5647396E0,9.802146E-1,9.9938387E-1,1.599115E0],"categories":[],"categories_nodes":[],"categories_segments":[],"categories_sizes":[],"default_left":[0,0,0,0,0,0,0,0,0,0,0,0,0,0,0,0,0,0,0,0,0,0,0,0,0,0,0,0,0,0,0,0,0,0,0,0,0,0,0,0,0,0,0,0,0,0,0,0,0,0,0,0,0,0,0,0,0,0,0,0,0,0,0,0,0,0,0,0,0,0,0,0,0,0,0,0,0,0,0,0,0,0,0,0,0,0,0,0,0,0,0,0,0,0,0,0,0,0,0,0,0,0,0,0,0,0,0,0,0,0,0,0,0,0,0,0,0,0,0,0,0,0,0,0,0,0,0],"id":1,"left_children":[1,3,5,7,9,11,13,15,17,19,21,23,25,27,29,31,33,35,37,39,41,43,45,47,49,51,53,55,57,59,61,63,65,67,69,71,73,75,77,79,81,83,85,87,89,91,93,95,97,99,101,103,105,107,109,111,113,115,117,119,121,123,125,-1,-1,-1,-1,-1,-1,-1,-1,-1,-1,-1,-1,-1,-1,-1,-1,-1,-1,-1,-1,-1,-1,-1,-1,-1,-1,-1,-1,-1,-1,-1,-1,-1,-1,-1,-1,-1,-1,-1,-1,-1,-1,-1,-1,-1,-1,-1,-1,-1,-1,-1,-1,-1,-1,-1,-1,-1,-1,-1,-1,-1,-1,-1,-1],"loss_changes":[7.357405E5,1.2355267E5,1.6866975E5,1.674675E4,1.8815418E4,2.2588031E4,3.503547E4,2.2438125E3,1.89975E3,2.0098265E3,3.090004E3,2.4086484E3,3.3265938E3,4.5777188E3,6.225E3,2.1435156E2,4.292422E2,2.8421484E2,4.894082E2,7.0607446E2,1.004178E3,8.521426E2,1.4317793E3,1.9963594E3,1.0505195E3,1.8236172E3,9.4775E2,1.1137891E3,8.242969E2,7.285469E2,3.2380625E3,5.2726562E1,1.9453125E0,5.9476562E1,9.921094E1,6.7140625E1,3.2072266E2,3.028379E2,6.342307E2,2.2533447E2,5.7378033E2,5.5445764E2,9.7520166E2,7.7102783E2,9.698633E2,4.5437305E2,1.2767168E3,6.7684375E2,6.77125E2,2.0594873E2,5.3375586E2,1.6404844E3,6.941172E2,4.0434766E2,3.6358594E2,4.348672E2,9.6791406E2,9.2589844E2,3.614453E2,5.6959375E2,1.121875E2,3.448125E3,2.5121094E2,0E0,0E0,0E0,0E0,0E0,0E0,0E0,0E0,0E0,0E0,0E0,0E0,0E0,0E0,0E0,0E0,0E0,0E0,0E0,0E0,0E0,0E0,0E0,0E0,0E0,0E0,0E0,0E0,0E0,0E0,0E0,0E0,0E0,0E0,0E0,0E0,0E0,0E0,0E0,0E0,0E0,0E0,0E0,0E0,0E0,0E0,0E0,0E0,0E0,0E0,0E0,0E0,0E0,0E0,0E0,0E0,0E0,0E0,0E0,0E0,0E0,0E0,0E0,0E0],"parents":[2147483647,0,0,1,1,2,2,3,3,4,4,5,5,6,6,7,7,8,8,9,9,10,10,11,11,12,12,13,13,14,14,15,15,16,16,17,17,18,18,19,19,20,20,21,21,22,22,23,23,24,24,25,25,26,26,27,27,28,28,29,29,30,30,31,31,32,32,33,33,34,34,35,35,36,36,37,37,38,38,39,39,40,40,41,41,42,42,43,43,44,44,45,45,46,46,47,47,48,48,49,49,50,50,51,51,52,52,53,53,54,54,55,55,56,56,57,57,58,58,59,59,60,60,61,61,62,62],"right_children":[2,4,6,8,10,12,14,16,18,20,22,24,26,28,30,32,34,36,38,40,42,44,46,48,50,52,54,56,58,60,62,64,66,68,70,72,74,76,78,80,82,84,86,88,90,92,94,96,98,100,102,104,106,108,110,112,114,116,118,120,122,124,126,-1,-1,-1,-1,-1,-1,-1,-1,-1,-1,-1,-1,-1,-1,-1,-1,-1,-1,-1,-1,-1,-1,-1,-1,-1,-1,-1,-1,-1,-1,-1,-1,-1,-1,-1,-1,-1,-1,-1,-1,-1,-1,-1,-1,-1,-1,-1,-1,-1,-1,-1,-1,-1,-1,-1,-1,-1,-1,-1,-1,-1,-1,-1,-1],"split_conditions":[6.714286E0,3.142857E0,1.3285714E1,2E0,4.571429E0,9.285714E0,1.9571428E1,1.4285715E0,2.4285715E0,3.857143E0,5.428571E0,2.9E1,1.1714286E1,1.5857142E1,2.3E1,1.2E0,1.7142857E0,1.2E1,1.2E1,2.9E1,1.2E1,1.2E1,1.2E1,7.857143E0,1.2E1,9E0,1.2E1,8E0,1.9E1,1.1E1,2.9E1,1.1428572E0,2.9E1,1.5714285E0,2.9E1,5E0,2.8E1,2E0,2.8E1,1.2E1,1.2E1,2E0,2.8E1,2E0,2.8E1,9E0,2.7E1,8E0,2E0,8E0,5.285714E0,2E0,4E0,7E0,9.928572E0,2E0,4E0,2E0,4E0,2E0,5E0,2E0,6.7887754E0,-1.2843923E-1,-1.213819E-1,-1.1411675E-1,-1.0907026E-1,-1.0671122E-1,-9.939003E-2,-9.0839975E-2,-7.4343316E-2,-8.1887715E-2,-7.0597254E-2,-6.887308E-2,-3.737857E-2,-7.5720446E-3,-5.507223E-2,-4.18959E-2,-1.1449127E-3,-2.4263814E-2,-8.173402E-3,-1.8323746E-2,5.1824875E-2,9.1957055E-2,2.1541852E-3,3.0094182E-2,1.0210698E-1,1.389027E-1,3.4372207E-2,6.403803E-2,1.4374627E-1,6.1793335E-2,9.929772E-2,1.1672708E-1,2.008395E-1,1.1830415E-1,1.682635E-1,3.2009062E-1,2.0485274E-1,1.5837777E-1,2.4668221E-1,4.5402622E-1,2.9657716E-1,3.9621314E-1,2.244852E-1,3.0744267E-1,3.646073E-1,3.1550914E-1,3.9678815E-1,5.865986E-1,4.4202897E-1,5.509243E-1,3.9147854E-1,4.800609E-1,5.912377E-1,8.548321E-1,5.8468246E-1,6.603937E-1,7.913658E-1,9.6972287E-1,6.695992E-1,8.236858E-1,9.621467E-1,1.5647396E0,9.802146E-1,9.9938387E-1,1.599115E0],"split_indices":[13,13,13,13,13,13,13,13,13,13,13,1,13,13,13,13,13,0,0,1,0,0,0,13,0,1,0,1,1,1,1,13,1,13,1,2,1,1,1,0,0,1,1,1,1,1,1,1,1,13,14,1,2,1,14,1,2,1,2,1,2,1,10,0,0,0,0,0,0,0,0,0,0,0,0,0,0,0,0,0,0,0,0,0,0,0,0,0,0,0,0,0,0,0,0,0,0,0,0,0,0,0,0,0,0,0,0,0,0,0,0,0,0,0,0,0,0,0,0,0,0,0,0,0,0,0,0],"split_type":[0,0,0,0,0,0,0,0,0,0,0,0,0,0,0,0,0,0,0,0,0,0,0,0,0,0,0,0,0,0,0,0,0,0,0,0,0,0,0,0,0,0,0,0,0,0,0,0,0,0,0,0,0,0,0,0,0,0,0,0,0,0,0,0,0,0,0,0,0,0,0,0,0,0,0,0,0,0,0,0,0,0,0,0,0,0,0,0,0,0,0,0,0,0,0,0,0,0,0,0,0,0,0,0,0,0,0,0,0,0,0,0,0,0,0,0,0,0,0,0,0,0,0,0,0,0,0],"sum_hessian":[1.10783E5,9.6173E4,1.461E4,6.6938E4,2.9235E4,1.1724E4,2.886E3,4.0193E4,2.6745E4,1.6989E4,1.2246E4,7.157E3,4.567E3,2.057E3,8.29E2,1.8722E4,2.1471E4,1.208E4,1.4665E4,1.0129E4,6.86E3,5.929E3,6.317E3,6.377E3,7.8E2,3.35E3,1.217E3,1.229E3,8.28E2,4.23E2,4.06E2,1.1848E4,6.874E3,1.1946E4,9.525E3,6.623E3,5.457E3,8.148E3,6.517E3,8.923E3,1.206E3,3.991E3,2.869E3,3.347E3,2.582E3,3.631E3,2.686E3,3.353E3,3.024E3,2.88E2,4.92E2,1.052E3,2.298E3,7.56E2,4.61E2,3.47E2,8.82E2,4.93E2,3.35E2,1.75E2,2.48E2,3.6E2,4.6E1,5.727E3,6.121E3,6.088E3,7.86E2,6.38E3,5.566E3,8.468E3,1.057E3,4.7E3,1.923E3,4.465E3,9.92E2,3.51E2,7.797E3,5.355E3,1.162E3,5.157E3,3.766E3,4.91E2,7.15E2,1.79E2,3.812E3,2.277E3,5.92E2,1.86E2,3.161E3,2.116E3,4.66E2,1.227E3,2.404E3,2.109E3,5.77E2,9.64E2,2.389E3,1.36E2,2.888E3,1.65E2,1.23E2,6.6E1,4.26E2,1.67E2,8.85E2,1.302E3,9.96E2,2.68E2,4.88E2,6.1E1,4E2,5.9E1,2.88E2,4.88E2,3.94E2,3.9E1,4.54E2,1.9E2,1.45E2,2.4E1,1.51E2,1.7E2,7.8E1,3E1,3.3E2,9E0,3.7E1],"tree_param":{"num_deleted":"0","num_feature":"15","num_nodes":"127","size_leaf_vector":"1"}},{"base_weights":[-2.9132902E-4,-9.562873E-1,6.2288947E0,-1.6670545E0,6.698997E-1,4.632337E0,1.2735622E1,-2.052157E0,-1.0880618E0,-3.998649E-2,1.5079436E0,3.5819447E0,6.2672977E0,1.0604957E1,1.7776524E1,-2.2921634E0,-1.8423047E0,-1.3101994E0,-7.851614E-1,-2.9903984E-1,2.5441998E-1,1.1526335E0,2.1789215E0,2.8254554E0,3.9762049E0,5.7895603E0,7.5780272E0,9.9780445E0,1.321164E1,1.5214248E1,2.0369318E1,-2.3702972E0,-2.1562307E0,-1.9619104E0,-1.6926103E0,-1.4552447E0,-1.1355675E0,-9.572994E-1,-5.700725E-1,-3.8402814E-1,3.5492387E-1,-2.627093E-2,6.281229E-1,1.0020132E0,2.0933053E0,1.9662362E0,3.2442138E0,2.00039E0,3.136614E0,3.7002327E0,5.2536345E0,4.8162336E0,6.281864E0,6.479532E0,8.06351E0,9.187472E0,1.111325E1,1.2649081E1,1.8438992E1,1.3047202E1,1.6493519E1,1.9275063E1,2.819072E1,-1.2201836E-1,-1.15236394E-1,-1.0834487E-1,-1.0361258E-1,-1.0146145E-1,-9.423576E-2,-8.646775E-2,-6.9794826E-2,-4.1856196E-2,-7.410745E-2,-6.26005E-2,-3.56751E-2,-1.44838905E-2,-4.944549E-2,-3.415886E-2,6.9481707E-3,2.0887874E-2,-2.0899272E-2,-1.8446418E-2,4.2727917E-2,7.587153E-2,-4.984149E-3,1.91401E-2,8.063387E-2,1.13170385E-1,4.6872623E-2,5.942319E-2,1.4042172E-1,6.749879E-2,1.07287124E-1,1.0237559E-1,2.1079695E-1,1.9548738E-1,8.493791E-2,1.4729773E-1,1.9962761E-1,1.5623681E-1,2.019544E-1,2.1172677E-1,2.957969E-1,3.5968456E-1,2.1899474E-1,2.9586565E-1,3.64821E-1,4.4351506E-1,3.008399E-1,3.7540963E-1,4.3775105E-1,6.3266957E-1,4.4615322E-1,5.279362E-1,7.363483E-1,4.0953955E-1,6.451296E-1,1.0142907E0,2.9119548E-1,8.3717614E-1,6.1548764E-1,7.736953E-1,8.780319E-1,1.3983718E0,9.234007E-1,8.700687E-1,1.4771222E0],"categories":[],"categories_nodes":[],"categories_segments":[],"categories_sizes":[],"default_left":[0,0,0,0,0,0,0,0,0,0,0,0,0,0,0,0,0,0,0,0,0,0,0,0,0,0,0,0,0,0,0,0,0,0,0,0,0,0,0,0,0,0,0,0,0,0,0,0,0,0,0,0,0,0,0,0,0,0,0,0,0,0,0,0,0,0,0,0,0,0,0,0,0,0,0,0,0,0,0,0,0,0,0,0,0,0,0,0,0,0,0,0,0,0,0,0,0,0,0,0,0,0,0,0,0,0,0,0,0,0,0,0,0,0,0,0,0,0,0,0,0,0,0,0,0,0,0],"id":2,"left_children":[1,3,5,7,9,11,13,15,17,19,21,23,25,27,29,31,33,35,37,39,41,43,45,47,49,51,53,55,57,59,61,63,65,67,69,71,73,75,77,79,81,83,85,87,89,91,93,95,97,99,101,103,105,107,109,111,113,115,117,119,121,123,125,-1,-1,-1,-1,-1,-1,-1,-1,-1,-1,-1,-1,-1,-1,-1,-1,-1,-1,-1,-1,-1,-1,-1,-1,-1,-1,-1,-1,-1,-1,-1,-1,-1,-1,-1,-1,-1,-1,-1,-1,-1,-1,-1,-1,-1,-1,-1,-1,-1,-1,-1,-1,-1,-1,-1,-1,-1,-1,-1,-1,-1,-1,-1,-1],"loss_changes":[6.5959625E5,1.1099069E5,1.5303444E5,1.4896703E4,1.7375172E4,2.030239E4,3.0991062E4,2.0168594E3,1.7950293E3,1.2060859E3,3.1906875E3,2.1385703E3,2.854125E3,3.2067812E3,5.410125E3,1.9365625E2,3.8007812E2,3.883711E2,4.1768848E2,4.6766913E2,7.764494E2,1.238915E3,1.0440098E3,6.286094E2,1.6501641E3,1.5970156E3,6.053125E2,1.3796094E3,9.2246094E2,9.9628906E2,3.0940156E3,4.8929688E1,1.6386719E0,5.7996094E1,1.0135742E2,1.3858594E2,3.4268945E2,1.3209717E2,4.029961E2,2.0287585E2,3.5040363E2,4.7929477E2,7.66246E2,6.128877E2,7.78333E2,4.2488086E2,8.867739E2,3.8498633E2,2.810078E2,7.4752344E2,5.412324E2,1.156293E3,7.897422E2,3.7033887E2,2.610625E2,7.842656E2,1.193125E3,2.989375E2,7.205781E2,2.4910547E2,2.3132812E1,2.1211875E3,2.1513281E2,0E0,0E0,0E0,0E0,0E0,0E0,0E0,0E0,0E0,0E0,0E0,0E0,0E0,0E0,0E0,0E0,0E0,0E0,0E0,0E0,0E0,0E0,0E0,0E0,0E0,0E0,0E0,0E0,0E0,0E0,0E0,0E0,0E0,0E0,0E0,0E0,0E0,0E0,0E0,0E0,0E0,0E0,0E0,0E0,0E0,0E0,0E0,0E0,0E0,0E0,0E0,0E0,0E0,0E0,0E0,0E0,0E0,0E0,0E0,0E0,0E0,0E0,0E0,0E0],"parents":[2147483647,0,0,1,1,2,2,3,3,4,4,5,5,6,6,7,7,8,8,9,9,10,10,11,11,12,12,13,13,14,14,15,15,16,16,17,17,18,18,19,19,20,20,21,21,22,22,23,23,24,24,25,25,26,26,27,27,28,28,29,29,30,30,31,31,32,32,33,33,34,34,35,35,36,36,37,37,38,38,39,39,40,40,41,41,42,42,43,43,44,44,45,45,46,46,47,47,48,48,49,49,50,50,51,51,52,52,53,53,54,54,55,55,56,56,57,57,58,58,59,59,60,60,61,61,62,62],"right_children":[2,4,6,8,10,12,14,16,18,20,22,24,26,28,30,32,34,36,38,40,42,44,46,48,50,52,54,56,58,60,62,64,66,68,70,72,74,76,78,80,82,84,86,88,90,92,94,96,98,100,102,104,106,108,110,112,114,116,118,120,122,124,126,-1,-1,-1,-1,-1,-1,-1,-1,-1,-1,-1,-1,-1,-1,-1,-1,-1,-1,-1,-1,-1,-1,-1,-1,-1,-1,-1,-1,-1,-1,-1,-1,-1,-1,-1,-1,-1,-1,-1,-1,-1,-1,-1,-1,-1,-1,-1,-1,-1,-1,-1,-1,-1,-1,-1,-1,-1,-1,-1,-1,-1,-1,-1,-1],"split_conditions":[6.714286E0,3.142857E0,1.3285714E1,2E0,4.428571E0,9.285714E0,1.9571428E1,1.4285715E0,2.5714285E0,3.7142856E0,5.714286E0,7.428571E0,1.1714286E1,1.7428572E1,2.3E1,1.2E0,1.7142857E0,1E0,1E0,2.9E1,1E0,2.8E1,2.7E1,8E0,2.7E1,1E1,8E0,1E0,2.9E1,9E0,2.9E1,1.1428572E0,2.9E1,1.5714285E0,2.9E1,2E0,2.7E1,2E0,2.9E1,2E0,1E0,2E0,2.8E1,2E0,1E0,4.0689654E0,1E0,2E0,2.8E1,9E0,1E0,2E0,2.7E1,2E0,1E0,2E0,3E1,4.7945905E0,1.9142857E1,2E0,1E0,2E0,2.02E3,-1.2201836E-1,-1.15236394E-1,-1.0834487E-1,-1.0361258E-1,-1.0146145E-1,-9.423576E-2,-8.646775E-2,-6.9794826E-2,-4.1856196E-2,-7.410745E-2,-6.26005E-2,-3.56751E-2,-1.44838905E-2,-4.944549E-2,-3.415886E-2,6.9481707E-3,2.0887874E-2,-2.0899272E-2,-1.8446418E-2,4.2727917E-2,7.587153E-2,-4.984149E-3,1.91401E-2,8.063387E-2,1.13170385E-1,4.6872623E-2,5.942319E-2,1.4042172E-1,6.749879E-2,1.07287124E-1,1.0237559E-1,2.1079695E-1,1.9548738E-1,8.493791E-2,1.4729773E-1,1.9962761E-1,1.5623681E-1,2.019544E-1,2.1172677E-1,2.957969E-1,3.5968456E-1,2.1899474E-1,2.9586565E-1,3.64821E-1,4.4351506E-1,3.008399E-1,3.7540963E-1,4.3775105E-1,6.3266957E-1,4.4615322E-1,5.279362E-1,7.363483E-1,4.0953955E-1,6.451296E-1,1.0142907E0,2.9119548E-1,8.3717614E-1,6.1548764E-1,7.736953E-1,8.780319E-1,1.3983718E0,9.234007E-1,8.700687E-1,1.4771222E0],"split_indices":[13,13,13,13,13,13,13,13,13,13,13,13,13,13,13,13,13,4,4,1,4,1,1,1,1,1,1,4,1,1,1,13,1,13,1,1,1,1,1,1,4,1,1,1,4,9,4,1,1,1,4,1,1,1,4,1,1,10,14,1,4,1,5,0,0,0,0,0,0,0,0,0,0,0,0,0,0,0,0,0,0,0,0,0,0,0,0,0,0,0,0,0,0,0,0,0,0,0,0,0,0,0,0,0,0,0,0,0,0,0,0,0,0,0,0,0,0,0,0,0,0,0,0,0,0,0,0],"split_type":[0,0,0,0,0,0,0,0,0,0,0,0,0,0,0,0,0,0,0,0,0,0,0,0,0,0,0,0,0,0,0,0,0,0,0,0,0,0,0,0,0,0,0,0,0,0,0,0,0,0,0,0,0,0,0,0,0,0,0,0,0,0,0,0,0,0,0,0,0,0,0,0,0,0,0,0,0,0,0,0,0,0,0,0,0,0,0,0,0,0,0,0,0,0,0,0,0,0,0,0,0,0,0,0,0,0,0,0,0,0,0,0,0,0,0,0,0,0,0,0,0,0,0,0,0,0,0],"sum_hessian":[1.1076E5,9.6024E4,1.4736E4,6.6819E4,2.9205E4,1.1834E4,2.902E3,4.0127E4,2.6692E4,1.5812E4,1.3393E4,7.207E3,4.627E3,2.042E3,8.6E2,1.8714E4,2.1413E4,1.5397E4,1.1295E4,8.411E3,7.401E3,8.758E3,4.635E3,2.472E3,4.735E3,3.395E3,1.232E3,1.65E3,3.92E2,4.36E2,4.24E2,1.1873E4,6.841E3,1.1896E4,9.517E3,8.407E3,6.99E3,6.272E3,5.023E3,7.444E3,9.67E2,4.227E3,3.174E3,7.551E3,1.207E3,3.866E3,7.69E2,6.79E2,1.793E3,3.897E3,8.38E2,1.144E3,2.251E3,3.82E2,8.5E2,9.78E2,6.72E2,3.57E2,3.5E1,1.66E2,2.7E2,3.75E2,4.9E1,5.722E3,6.151E3,6.048E3,7.93E2,6.341E3,5.555E3,8.464E3,1.053E3,3.52E2,8.055E3,5.477E3,1.513E3,2.84E2,5.988E3,4.332E3,6.91E2,3.02E2,7.142E3,3.95E2,5.72E2,1.91E2,4.036E3,2.542E3,6.32E2,3.66E2,7.185E3,5.34E2,6.73E2,8.74E2,2.992E3,3.46E2,4.23E2,9.1E1,5.88E2,1.47E3,3.23E2,1.448E3,2.449E3,3.33E2,5.05E2,1.75E2,9.69E2,1.661E3,5.9E2,5.9E1,3.23E2,4.78E2,3.72E2,6.6E1,9.12E2,5.86E2,8.6E1,2.1E1,3.36E2,3E1,5E0,2.4E1,1.42E2,1.46E2,1.24E2,2.9E1,3.46E2,7E0,4.2E1],"tree_param":{"num_deleted":"0","num_feature":"15","num_nodes":"127","size_leaf_vector":"1"}},{"base_weights":[-7.043335E-3,-8.7246764E-1,5.605534E0,-1.4568386E0,7.2108006E-1,4.2811227E0,1.2013888E1,-1.86857E0,-9.214942E-1,2.6400277E-1,1.6330208E0,3.3083107E0,5.94496E0,9.984268E0,1.6374487E1,-2.1293855E0,-1.6646615E0,-1.1654133E0,-6.4889544E-1,-5.917746E-2,7.298035E-1,1.2291238E0,2.1897175E0,2.6966145E0,3.9320955E0,5.207205E0,6.822366E0,9.024563E0,1.1451484E1,1.4477822E1,1.8197939E1,-2.2449358E0,-2.0279667E0,-1.7845337E0,-1.5126578E0,-1.3390342E0,-9.652775E-1,-8.6829454E-1,-3.5918117E-1,-3.4576884E-1,2.2148055E-1,3.4632936E-1,1.1920094E0,8.234747E-1,1.416508E0,2.1510801E0,6.1879435E0,2.2501051E0,3.4036252E0,3.4153428E0,4.6665564E0,4.792176E0,5.7925205E0,6.3844075E0,7.6752014E0,8.427359E0,1.0735706E1,9.907683E0,1.2887273E1,1.3575901E1,1.573458E1,1.6635822E1,2.1004768E1,-1.1469926E-1,-1.08800195E-1,-1.0508523E-1,-9.948777E-2,-9.422372E-2,-8.460298E-2,-8.224916E-2,-6.967015E-2,-7.127204E-2,-5.897863E-2,-5.5143476E-2,-4.165813E-2,-4.8878986E-2,-3.916468E-2,-2.8008252E-2,-1.1231349E-2,-1.8364184E-2,4.232542E-2,1.861945E-3,2.6378551E-2,6.2920745E-3,3.182546E-2,5.6437936E-2,1.09088376E-1,5.6384396E-2,2.8429592E-2,5.4983534E-2,7.984729E-2,7.544621E-2,1.17387675E-1,4.2098787E-2,4.3540516E-1,7.039838E-2,1.175071E-1,1.3817023E-1,1.8041256E-1,1.4846769E-1,1.8982667E-1,2.1682428E-1,2.603475E-1,2.253923E-1,2.69434E-1,2.7011856E-1,3.285915E-1,2.7348077E-1,3.399899E-1,3.5190564E-1,4.2185766E-1,2.2342518E-1,4.284129E-1,-4.5491315E-2,5.435488E-1,4.585209E-1,5.3035074E-1,5.728003E-1,7.576701E-1,4.8422467E-2,6.8124026E-1,6.736057E-1,8.694048E-1,6.597496E-1,8.949918E-1,9.2182916E-1,1.1339759E0],"categories":[],"categories_nodes":[],"categories_segments":[],"categories_sizes":[],"default_left":[0,0,0,0,0,0,0,0,0,0,0,0,0,0,0,0,0,0,0,0,0,0,0,0,0,0,0,0,0,0,0,0,0,0,0,0,0,0,0,0,0,0,0,0,0,0,0,0,0,0,0,0,0,0,0,0,0,0,0,0,0,0,0,0,0,0,0,0,0,0,0,0,0,0,0,0,0,0,0,0,0,0,0,0,0,0,0,0,0,0,0,0,0,0,0,0,0,0,0,0,0,0,0,0,0,0,0,0,0,0,0,0,0,0,0,0,0,0,0,0,0,0,0,0,0,0,0],"id":3,"left_children":[1,3,5,7,9,11,13,15,17,19,21,23,25,27,29,31,33,35,37,39,41,43,45,47,49,51,53,55,57,59,61,63,65,67,69,71,73,75,77,79,81,83,85,87,89,91,93,95,97,99,101,103,105,107,109,111,113,115,117,119,121,123,125,-1,-1,-1,-1,-1,-1,-1,-1,-1,-1,-1,-1,-1,-1,-1,-1,-1,-1,-1,-1,-1,-1,-1,-1,-1,-1,-1,-1,-1,-1,-1,-1,-1,-1,-1,-1,-1,-1,-1,-1,-1,-1,-1,-1,-1,-1,-1,-1,-1,-1,-1,-1,-1,-1,-1,-1,-1,-1,-1,-1,-1,-1,-1,-1],"loss_changes":[5.371936E5,8.923178E4,1.2534841E5,1.5452E4,1.0716617E4,1.9801719E4,2.2227938E4,2.1040781E3,2.0260547E3,2.578451E3,1.9274062E3,2.9389062E3,2.888375E3,2.33125E3,2.51025E3,1.991875E2,4.0264844E2,5.5766016E2,9.1480566E2,8.1350726E2,1.2431311E3,3.77146E2,5.4406055E2,1.2254141E3,1.4357812E3,5.6934375E2,7.204219E2,9.8252344E2,1.3795938E3,2.3751562E2,1.4263438E3,2.2453125E1,2.1933594E1,1.11703125E2,1.525918E2,1.169668E2,1.3497998E2,7.533203E1,1.6770435E2,1.2867175E2,2.881568E2,2.4535156E2,1.9667676E2,1.214823E2,1.927915E2,4.4796094E2,4.5073962E2,1.9862598E2,1.8784766E2,3.7107227E2,2.5871094E2,2.206211E2,2.7310547E2,4.8226172E2,2.775078E2,3.9847656E2,4.3206836E2,7.39043E1,9.583594E2,1.3416016E2,3.643086E2,9.163594E2,1.8832031E2,0E0,0E0,0E0,0E0,0E0,0E0,0E0,0E0,0E0,0E0,0E0,0E0,0E0,0E0,0E0,0E0,0E0,0E0,0E0,0E0,0E0,0E0,0E0,0E0,0E0,0E0,0E0,0E0,0E0,0E0,0E0,0E0,0E0,0E0,0E0,0E0,0E0,0E0,0E0,0E0,0E0,0E0,0E0,0E0,0E0,0E0,0E0,0E0,0E0,0E0,0E0,0E0,0E0,0E0,0E0,0E0,0E0,0E0,0E0,0E0,0E0,0E0,0E0,0E0],"parents":[2147483647,0,0,1,1,2,2,3,3,4,4,5,5,6,6,7,7,8,8,9,9,10,10,11,11,12,12,13,13,14,14,15,15,16,16,17,17,18,18,19,19,20,20,21,21,22,22,23,23,24,24,25,25,26,26,27,27,28,28,29,29,30,30,31,31,32,32,33,33,34,34,35,35,36,36,37,37,38,38,39,39,40,40,41,41,42,42,43,43,44,44,45,45,46,46,47,47,48,48,49,49,50,50,51,51,52,52,53,53,54,54,55,55,56,56,57,57,58,58,59,59,60,60,61,61,62,62],"right_children":[2,4,6,8,10,12,14,16,18,20,22,24,26,28,30,32,34,36,38,40,42,44,46,48,50,52,54,56,58,60,62,64,66,68,70,72,74,76,78,80,82,84,86,88,90,92,94,96,98,100,102,104,106,108,110,112,114,116,118,120,122,124,126,-1,-1,-1,-1,-1,-1,-1,-1,-1,-1,-1,-1,-1,-1,-1,-1,-1,-1,-1,-1,-1,-1,-1,-1,-1,-1,-1,-1,-1,-1,-1,-1,-1,-1,-1,-1,-1,-1,-1,-1,-1,-1,-1,-1,-1,-1,-1,-1,-1,-1,-1,-1,-1,-1,-1,-1,-1,-1,-1,-1,-1,-1,-1,-1],"split_conditions":[6.5E0,3.2857144E0,1.3428572E1,2E0,4.928571E0,9.2E0,1.9142857E1,1.375E0,2.5714285E0,1.2E1,1.2E1,7.642857E0,1.0857142E1,1.2E1,2.2357143E1,1.2142857E0,1.7142857E0,1.2E1,1.2E1,3.9285715E0,4E0,3.0488126E0,7.2146835E0,1.2E1,1.2E1,1.2E1,1.2E1,1.6857143E1,1.55E1,1.2E1,1.2E1,1.1E0,1.2857143E0,1.2E1,1.2E1,2.3076923E0,2.022E3,2.857143E0,3E0,5.146247E0,3.0063221E0,3.642857E0,4.7119727E0,3E0,5.5E0,5.214286E0,3E0,3.0768008E0,2E0,4.1002727E0,8.571428E0,5.5171905E0,2.022E3,5.0551686E0,4E0,4.424377E0,1.303E3,1.4285714E1,2.022E3,3.9049075E0,2.021E3,8.507939E0,2.021E3,-1.1469926E-1,-1.08800195E-1,-1.0508523E-1,-9.948777E-2,-9.422372E-2,-8.460298E-2,-8.224916E-2,-6.967015E-2,-7.127204E-2,-5.897863E-2,-5.5143476E-2,-4.165813E-2,-4.8878986E-2,-3.916468E-2,-2.8008252E-2,-1.1231349E-2,-1.8364184E-2,4.232542E-2,1.861945E-3,2.6378551E-2,6.2920745E-3,3.182546E-2,5.6437936E-2,1.09088376E-1,5.6384396E-2,2.8429592E-2,5.4983534E-2,7.984729E-2,7.544621E-2,1.17387675E-1,4.2098787E-2,4.3540516E-1,7.039838E-2,1.175071E-1,1.3817023E-1,1.8041256E-1,1.4846769E-1,1.8982667E-1,2.1682428E-1,2.603475E-1,2.253923E-1,2.69434E-1,2.7011856E-1,3.285915E-1,2.7348077E-1,3.399899E-1,3.5190564E-1,4.2185766E-1,2.2342518E-1,4.284129E-1,-4.5491315E-2,5.435488E-1,4.585209E-1,5.3035074E-1,5.728003E-1,7.576701E-1,4.8422467E-2,6.8124026E-1,6.736057E-1,8.694048E-1,6.597496E-1,8.949918E-1,9.2182916E-1,1.1339759E0],"split_indices":[14,14,14,14,14,14,14,14,14,0,0,14,14,0,14,14,14,0,0,14,14,10,10,0,0,0,0,14,14,0,0,14,14,0,0,14,5,14,2,10,10,14,10,2,14,14,2,10,2,10,14,10,5,10,2,10,6,14,5,10,5,10,5,0,0,0,0,0,0,0,0,0,0,0,0,0,0,0,0,0,0,0,0,0,0,0,0,0,0,0,0,0,0,0,0,0,0,0,0,0,0,0,0,0,0,0,0,0,0,0,0,0,0,0,0,0,0,0,0,0,0,0,0,0,0,0,0],"split_type":[0,0,0,0,0,0,0,0,0,0,0,0,0,0,0,0,0,0,0,0,0,0,0,0,0,0,0,0,0,0,0,0,0,0,0,0,0,0,0,0,0,0,0,0,0,0,0,0,0,0,0,0,0,0,0,0,0,0,0,0,0,0,0,0,0,0,0,0,0,0,0,0,0,0,0,0,0,0,0,0,0,0,0,0,0,0,0,0,0,0,0,0,0,0,0,0,0,0,0,0,0,0,0,0,0,0,0,0,0,0,0,0,0,0,0,0,0,0,0,0,0,0,0,0,0,0,0],"sum_hessian":[1.10594E5,9.582E4,1.4774E4,7.011E4,2.571E4,1.2245E4,2.529E3,3.9629E4,3.0481E4,1.7127E4,8.583E3,7.729E3,4.516E3,1.728E3,8.01E2,1.7384E4,2.2245E4,1.6085E4,1.4396E4,1.0112E4,7.015E3,4.976E3,3.607E3,3.905E3,3.824E3,2.457E3,2.059E3,1.049E3,6.79E2,3.97E2,4.04E2,8.116E3,9.268E3,1.2431E4,9.814E3,8.61E3,7.475E3,8.191E3,6.205E3,5.003E3,5.109E3,3.835E3,3.18E3,1.574E3,3.402E3,3.574E3,3.3E1,2.396E3,1.509E3,2.248E3,1.576E3,1.443E3,1.014E3,1.366E3,6.93E2,7.82E2,2.67E2,3.31E2,3.48E2,2.38E2,1.59E2,2.64E2,1.4E2,4.723E3,3.393E3,3.145E3,6.123E3,5.965E3,6.466E3,4.646E3,5.168E3,5.579E3,3.031E3,3.658E3,3.817E3,3.579E3,4.612E3,2.487E3,3.718E3,4.915E3,8.8E1,3.19E3,1.919E3,2.18E3,1.655E3,2.991E3,1.89E2,7.16E2,8.58E2,1.237E3,2.165E3,8.4E2,2.734E3,1.1E1,2.2E1,2.56E2,2.14E3,3.69E2,1.14E3,1.04E3,1.208E3,9.84E2,5.92E2,9.83E2,4.6E2,6.81E2,3.33E2,4.31E2,9.35E2,3.83E2,3.1E2,2.8E1,7.54E2,3E0,2.64E2,1.68E2,1.63E2,2.17E2,1.31E2,1E0,2.37E2,7.1E1,8.8E1,7.4E1,1.9E2,6E1,8E1],"tree_param":{"num_deleted":"0","num_feature":"15","num_nodes":"127","size_leaf_vector":"1"}},{"base_weights":[-6.175413E-3,-8.66209E-1,5.651758E0,-1.511767E0,6.170753E-1,4.3571672E0,1.2026954E1,-1.8630693E0,-9.8270214E-1,-2.5628502E-2,1.3742069E0,3.4760923E0,6.3347774E0,1.07656355E1,1.8240736E1,-2.07918E0,-1.6748755E0,-1.2454823E0,-7.6696026E-1,-2.557592E-1,2.3787746E-1,1.0070876E0,1.9193182E0,2.999373E0,4.304794E0,5.5973487E0,7.2762833E0,9.537288E0,1.2561944E1,1.6748926E1,2.0355827E1,-2.1482449E0,-1.9573724E0,-1.7812529E0,-1.5412692E0,-1.3625128E0,-1.1063013E0,-9.1986024E-1,-5.7576466E-1,-4.363361E-1,-2.8238302E-2,-4.1966876E-3,5.6450886E-1,7.029068E-1,1.4090763E0,1.5409224E0,2.4355724E0,2.5903769E0,3.555063E0,3.8544967E0,4.881738E0,5.207908E0,6.1583915E0,6.639288E0,8.2531185E0,8.9313345E0,1.0631462E1,1.1592388E1,1.4020853E1,1.9764923E1,1.3647873E1,8.642767E-1,2.1709227E1,-1.1043973E-1,-1.0458757E-1,-9.936451E-2,-9.648543E-2,-9.211455E-2,-8.6209685E-2,-8.182084E-2,-7.19512E-2,-7.1038954E-2,-6.09096E-2,-4.6455145E-2,-5.9783142E-2,-5.0949406E-2,-3.7369117E-2,-3.6705326E-2,-1.4136136E-2,-2.3606107E-2,-6.04786E-3,2.881003E-2,-5.0519235E-3,-4.1216076E-4,4.274107E-1,8.723124E-2,2.3452906E-2,2.2133E-2,4.6992235E-2,1.3827752E-1,6.494803E-2,5.4818776E-2,8.909687E-2,1.9522135E-1,1.153083E-1,1.1634047E-1,1.599351E-1,2.2489813E-1,1.691557E-1,1.4133349E-1,2.1709292E-1,4.2570806E-1,2.3643573E-1,2.4147561E-1,2.8258172E-1,5.346435E-1,2.9674724E-1,2.9313543E-1,3.628764E-1,5.4838365E-1,3.8817045E-1,4.13874E-1,4.8727676E-1,2.6524502E-1,5.353445E-1,4.6869215E-1,6.350083E-1,6.451003E-1,7.685134E-1,8.7817615E-1,1.1146669E0,3.3602095E-1,7.7792853E-1,1.1084193E0,5.827467E-1],"categories":[],"categories_nodes":[],"categories_segments":[],"categories_sizes":[],"default_left":[0,0,0,0,0,0,0,0,0,0,0,0,0,0,0,0,0,0,0,0,0,0,0,0,0,0,0,0,0,0,0,0,0,0,0,0,0,0,0,0,0,0,0,0,0,0,0,0,0,0,0,0,0,0,0,0,0,0,0,0,0,0,0,0,0,0,0,0,0,0,0,0,0,0,0,0,0,0,0,0,0,0,0,0,0,0,0,0,0,0,0,0,0,0,0,0,0,0,0,0,0,0,0,0,0,0,0,0,0,0,0,0,0,0,0,0,0,0,0,0,0,0,0,0,0],"id":4,"left_children":[1,3,5,7,9,11,13,15,17,19,21,23,25,27,29,31,33,35,37,39,41,43,45,47,49,51,53,55,57,59,61,63,65,67,69,71,73,75,77,79,81,83,85,87,89,91,93,95,97,99,101,103,105,107,109,111,113,115,117,119,121,-1,123,-1,-1,-1,-1,-1,-1,-1,-1,-1,-1,-1,-1,-1,-1,-1,-1,-1,-1,-1,-1,-1,-1,-1,-1,-1,-1,-1,-1,-1,-1,-1,-1,-1,-1,-1,-1,-1,-1,-1,-1,-1,-1,-1,-1,-1,-1,-1,-1,-1,-1,-1,-1,-1,-1,-1,-1,-1,-1,-1,-1,-1,-1],"loss_changes":[5.39344E5,9.213027E4,1.2065166E5,1.2457969E4,1.4197894E4,2.1162344E4,1.9146719E4,1.6349844E3,1.5157461E3,9.570942E2,2.6788867E3,3.310711E3,2.5600938E3,4.412328E3,9.6853125E2,1.5350781E2,3.0338672E2,1.9493164E2,4.2903125E2,3.4612897E2,5.8179224E2,9.78084E2,1.0491758E3,1.2053477E3,7.787578E2,4.2785938E2,9.669219E2,7.1659375E2,1.0129219E3,2.059086E3,3.186875E2,3.6273438E1,1.7890625E0,3.8566406E1,9.059961E1,5.3322266E1,8.620264E1,1.3880371E2,3.0288257E2,5.295398E1,1.6414635E2,1.4635663E2,3.5197925E2,2.807644E2,5.1143213E2,3.3158105E2,4.239961E2,4.8670898E2,3.516836E2,8.538262E2,7.056836E2,1.8241797E2,8.048613E2,4.3708203E2,7.709492E2,3.4203125E2,1.1636719E2,1.1220703E3,2.9539062E2,2.9864062E2,1.563209E3,0E0,2.586836E2,0E0,0E0,0E0,0E0,0E0,0E0,0E0,0E0,0E0,0E0,0E0,0E0,0E0,0E0,0E0,0E0,0E0,0E0,0E0,0E0,0E0,0E0,0E0,0E0,0E0,0E0,0E0,0E0,0E0,0E0,0E0,0E0,0E0,0E0,0E0,0E0,0E0,0E0,0E0,0E0,0E0,0E0,0E0,0E0,0E0,0E0,0E0,0E0,0E0,0E0,0E0,0E0,0E0,0E0,0E0,0E0,0E0,0E0,0E0,0E0,0E0,0E0],"parents":[2147483647,0,0,1,1,2,2,3,3,4,4,5,5,6,6,7,7,8,8,9,9,10,10,11,11,12,12,13,13,14,14,15,15,16,16,17,17,18,18,19,19,20,20,21,21,22,22,23,23,24,24,25,25,26,26,27,27,28,28,29,29,30,30,31,31,32,32,33,33,34,34,35,35,36,36,37,37,38,38,39,39,40,40,41,41,42,42,43,43,44,44,45,45,46,46,47,47,48,48,49,49,50,50,51,51,52,52,53,53,54,54,55,55,56,56,57,57,58,58,59,59,60,60,62,62],"right_children":[2,4,6,8,10,12,14,16,18,20,22,24,26,28,30,32,34,36,38,40,42,44,46,48,50,52,54,56,58,60,62,64,66,68,70,72,74,76,78,80,82,84,86,88,90,92,94,96,98,100,102,104,106,108,110,112,114,116,118,120,122,-1,124,-1,-1,-1,-1,-1,-1,-1,-1,-1,-1,-1,-1,-1,-1,-1,-1,-1,-1,-1,-1,-1,-1,-1,-1,-1,-1,-1,-1,-1,-1,-1,-1,-1,-1,-1,-1,-1,-1,-1,-1,-1,-1,-1,-1,-1,-1,-1,-1,-1,-1,-1,-1,-1,-1,-1,-1,-1,-1,-1,-1,-1,-1],"split_conditions":[6.714286E0,3.142857E0,1.4E1,2E0,4.428571E0,1E1,2.3E1,1.4285715E0,2.4285715E0,3.7142856E0,5.571429E0,8.428572E0,1.1714286E1,1.7428572E1,1.2E1,1.2E0,1.7142857E0,1.2E1,1.2E1,1.2E1,1.2E1,1.2E1,1.2E1,1.2E1,1.2E1,1.2E1,1.2E1,1.5857142E1,1.2E1,3E0,2.021E3,1.1428572E0,1.2E1,1.2E1,1.2E1,5E0,1.9285715E0,2.857143E0,2.857143E0,4.789272E0,2.5E0,1.4529033E1,2.857143E0,3.9151516E0,3.4285715E0,4.5079365E0,4.357143E0,8.221219E0,5.785714E0,6.394102E0,6.214286E0,9.847312E0,7.5E0,1.0186551E1,1.0214286E1,1.2E1,4.037233E0,1.4529033E1,2.022E3,2.024E3,1.4529033E1,8.642767E-1,5E0,-1.1043973E-1,-1.0458757E-1,-9.936451E-2,-9.648543E-2,-9.211455E-2,-8.6209685E-2,-8.182084E-2,-7.19512E-2,-7.1038954E-2,-6.09096E-2,-4.6455145E-2,-5.9783142E-2,-5.0949406E-2,-3.7369117E-2,-3.6705326E-2,-1.4136136E-2,-2.3606107E-2,-6.04786E-3,2.881003E-2,-5.0519235E-3,-4.1216076E-4,4.274107E-1,8.723124E-2,2.3452906E-2,2.2133E-2,4.6992235E-2,1.3827752E-1,6.494803E-2,5.4818776E-2,8.909687E-2,1.9522135E-1,1.153083E-1,1.1634047E-1,1.599351E-1,2.2489813E-1,1.691557E-1,1.4133349E-1,2.1709292E-1,4.2570806E-1,2.3643573E-1,2.4147561E-1,2.8258172E-1,5.346435E-1,2.9674724E-1,2.9313543E-1,3.628764E-1,5.4838365E-1,3.8817045E-1,4.13874E-1,4.8727676E-1,2.6524502E-1,5.353445E-1,4.6869215E-1,6.350083E-1,6.451003E-1,7.685134E-1,8.7817615E-1,1.1146669E0,3.3602095E-1,7.7792853E-1,1.1084193E0,5.827467E-1],"split_indices":[13,13,13,13,13,13,13,13,13,13,13,13,13,13,0,13,13,0,0,0,0,0,0,0,0,0,0,13,0,2,5,13,0,0,0,2,14,13,13,9,14,9,14,9,14,9,14,9,14,9,14,9,14,9,14,0,10,9,5,5,9,0,7,0,0,0,0,0,0,0,0,0,0,0,0,0,0,0,0,0,0,0,0,0,0,0,0,0,0,0,0,0,0,0,0,0,0,0,0,0,0,0,0,0,0,0,0,0,0,0,0,0,0,0,0,0,0,0,0,0,0,0,0,0,0],"split_type":[0,0,0,0,0,0,0,0,0,0,0,0,0,0,0,0,0,0,0,0,0,0,0,0,0,0,0,0,0,0,0,0,0,0,0,0,0,0,0,0,0,0,0,0,0,0,0,0,0,0,0,0,0,0,0,0,0,0,0,0,0,0,0,0,0,0,0,0,0,0,0,0,0,0,0,0,0,0,0,0,0,0,0,0,0,0,0,0,0,0,0,0,0,0,0,0,0,0,0,0,0,0,0,0,0,0,0,0,0,0,0,0,0,0,0,0,0,0,0,0,0,0,0,0,0],"sum_hessian":[1.10837E5,9.6213E4,1.4624E4,6.7037E4,2.9176E4,1.2157E4,2.467E3,4.0285E4,2.6752E4,1.5781E4,1.3395E4,8.412E3,3.745E3,2.053E3,4.14E2,1.8747E4,2.1538E4,1.2059E4,1.4693E4,8.424E3,7.357E3,8.006E3,5.389E3,5.343E3,3.069E3,2.104E3,1.641E3,1.223E3,8.3E2,2.48E2,1.66E2,1.1953E4,6.794E3,1.1984E4,9.554E3,6.546E3,5.513E3,8.162E3,6.531E3,4.696E3,3.728E3,4.226E3,3.131E3,4.559E3,3.447E3,3.112E3,2.277E3,3.081E3,2.262E3,1.728E3,1.341E3,1.248E3,8.56E2,9.98E2,6.43E2,7.93E2,4.3E2,5.04E2,3.26E2,1.23E2,1.25E2,5.5E1,1.11E2,5.751E3,6.202E3,3.23E3,3.564E3,5.775E3,6.209E3,4.941E3,4.613E3,4.657E3,1.889E3,1.852E3,3.661E3,5.18E3,2.982E3,4.239E3,2.292E3,4.217E3,4.79E2,4E2,3.328E3,4.225E3,1E0,2.33E2,2.898E3,2.174E3,2.385E3,2.57E2,3.19E3,1.096E3,2.016E3,1.82E2,2.095E3,2.153E3,9.28E2,3.45E2,1.917E3,5.58E2,1.17E3,5.2E1,1.289E3,6.8E2,5.68E2,3.8E1,8.18E2,4.47E2,5.51E2,9.5E1,5.48E2,4.46E2,3.47E2,7E0,4.23E2,1.71E2,3.33E2,1.84E2,1.42E2,7E1,5.3E1,2.8E1,9.7E1,1.05E2,6E0],"tree_param":{"num_deleted":"0","num_feature":"15","num_nodes":"125","size_leaf_vector":"1"}},{"base_weights":[-2.6239322E-3,-7.455767E-1,6.0059156E0,-1.3350817E0,9.823586E-1,4.5829215E0,1.1589762E1,-1.7216922E0,-7.375087E-1,3.8561562E-1,1.807823E0,3.753767E0,6.1738706E0,9.530848E0,1.5533677E1,-1.9210352E0,-1.4667313E0,-9.546618E-1,-4.229468E-1,4.1302662E-2,6.778024E-1,1.6523389E0,2.8182344E0,3.413211E0,4.858983E0,5.7672195E0,7.4135933E0,8.513782E0,1.0530046E1,1.3242407E1,1.7848026E1,-2.0365067E0,-1.8114967E0,-1.570939E0,-1.3441552E0,-1.0830023E0,-7.995888E-1,-6.01835E-1,-1.9623266E-1,-6.31541E-2,5.157808E-1,5.2719253E-1,1.585559E0,1.3364068E0,2.1155438E0,1.8109136E0,3.553457E0,2.9565225E0,3.9629116E0,4.2572656E0,5.7147503E0,5.288671E0,6.572819E0,6.3214493E0,8.367865E0,7.4044127E0,9.019055E0,1.4932835E1,1.0302343E1,1.131516E1,1.445901E1,2.6400793E1,1.7144358E1,-1.04923904E-1,-9.90451E-2,-9.3364455E-2,-8.800632E-2,-8.011079E-2,-6.6603325E-2,-7.198885E-2,-6.1570525E-2,-1.2068736E-2,-5.588713E-2,-4.5742694E-2,-1.3891018E-2,1.250778E-2,-3.20946E-2,-1.8195884E-2,2.5183832E-2,4.161158E-2,-5.259669E-3,-5.7615894E-3,5.274436E-2,8.622166E-2,2.3420943E-2,3.5738558E-2,1.1254474E-1,1.2896565E-1,6.383388E-2,8.1001654E-2,1.1630948E-1,7.257505E-2,1.1071169E-1,1.1739615E-1,2.013733E-1,2.4310367E-1,1.4258938E-1,1.1876384E-1,2.0718543E-1,1.7234263E-1,2.411301E-1,7.964848E-1,2.8111297E-1,3.952125E-1,2.5655338E-1,2.846365E-1,3.5922903E-1,2.6941404E-1,3.5680684E-1,3.6101243E-1,4.868702E-1,4.8736292E-1,3.4541637E-1,4.0752912E-1,5.060674E-1,4.8950434E-1,9.535902E-1,4.1673598E-1,5.487204E-1,8.383522E-1,5.1773083E-1,6.748818E-1,7.672488E-1,6.6888326E-1,1.4891359E0,8.0912924E-1,1.1829922E0],"categories":[],"categories_nodes":[],"categories_segments":[],"categories_sizes":[],"default_left":[0,0,0,0,0,0,0,0,0,0,0,0,0,0,0,0,0,0,0,0,0,0,0,0,0,0,0,0,0,0,0,0,0,0,0,0,0,0,0,0,0,0,0,0,0,0,0,0,0,0,0,0,0,0,0,0,0,0,0,0,0,0,0,0,0,0,0,0,0,0,0,0,0,0,0,0,0,0,0,0,0,0,0,0,0,0,0,0,0,0,0,0,0,0,0,0,0,0,0,0,0,0,0,0,0,0,0,0,0,0,0,0,0,0,0,0,0,0,0,0,0,0,0,0,0,0,0],"id":5,"left_children":[1,3,5,7,9,11,13,15,17,19,21,23,25,27,29,31,33,35,37,39,41,43,45,47,49,51,53,55,57,59,61,63,65,67,69,71,73,75,77,79,81,83,85,87,89,91,93,95,97,99,101,103,105,107,109,111,113,115,117,119,121,123,125,-1,-1,-1,-1,-1,-1,-1,-1,-1,-1,-1,-1,-1,-1,-1,-1,-1,-1,-1,-1,-1,-1,-1,-1,-1,-1,-1,-1,-1,-1,-1,-1,-1,-1,-1,-1,-1,-1,-1,-1,-1,-1,-1,-1,-1,-1,-1,-1,-1,-1,-1,-1,-1,-1,-1,-1,-1,-1,-1,-1,-1,-1,-1,-1],"loss_changes":[4.949126E5,1.0050511E5,9.688544E4,1.6995016E4,1.2362822E4,1.2804172E4,1.9965656E4,2.2674219E3,1.9737686E3,1.4656672E3,1.649793E3,2.390414E3,1.6360078E3,1.5668438E3,4.2604375E3,3.1334375E2,2.4830078E2,3.3940137E2,4.7865137E2,3.3155582E2,1.0766316E3,1.333123E3,1.0326348E3,1.2163828E3,7.50125E2,9.3366406E2,8.0066797E2,3.889336E2,6.6622656E2,8.446094E2,2.0690625E3,3.786328E1,3.360547E1,7.6984375E1,9.541699E1,2.7316797E2,4.6560303E2,2.2533862E2,6.114166E2,2.0647517E2,4.1072235E2,4.7493848E2,6.478606E2,3.9981934E2,3.8242773E2,8.2891235E1,4.534043E2,5.202051E2,6.2652344E2,3.8976074E2,4.943203E2,6.111719E2,4.6089062E2,2.5500195E2,6.1181445E2,2.3484863E2,4.4785547E2,6.221406E2,9.413047E2,7.218711E2,1.4328125E1,9.2287305E2,2.0610312E3,0E0,0E0,0E0,0E0,0E0,0E0,0E0,0E0,0E0,0E0,0E0,0E0,0E0,0E0,0E0,0E0,0E0,0E0,0E0,0E0,0E0,0E0,0E0,0E0,0E0,0E0,0E0,0E0,0E0,0E0,0E0,0E0,0E0,0E0,0E0,0E0,0E0,0E0,0E0,0E0,0E0,0E0,0E0,0E0,0E0,0E0,0E0,0E0,0E0,0E0,0E0,0E0,0E0,0E0,0E0,0E0,0E0,0E0,0E0,0E0,0E0,0E0,0E0,0E0],"parents":[2147483647,0,0,1,1,2,2,3,3,4,4,5,5,6,6,7,7,8,8,9,9,10,10,11,11,12,12,13,13,14,14,15,15,16,16,17,17,18,18,19,19,20,20,21,21,22,22,23,23,24,24,25,25,26,26,27,27,28,28,29,29,30,30,31,31,32,32,33,33,34,34,35,35,36,36,37,37,38,38,39,39,40,40,41,41,42,42,43,43,44,44,45,45,46,46,47,47,48,48,49,49,50,50,51,51,52,52,53,53,54,54,55,55,56,56,57,57,58,58,59,59,60,60,61,61,62,62],"right_children":[2,4,6,8,10,12,14,16,18,20,22,24,26,28,30,32,34,36,38,40,42,44,46,48,50,52,54,56,58,60,62,64,66,68,70,72,74,76,78,80,82,84,86,88,90,92,94,96,98,100,102,104,106,108,110,112,114,116,118,120,122,124,126,-1,-1,-1,-1,-1,-1,-1,-1,-1,-1,-1,-1,-1,-1,-1,-1,-1,-1,-1,-1,-1,-1,-1,-1,-1,-1,-1,-1,-1,-1,-1,-1,-1,-1,-1,-1,-1,-1,-1,-1,-1,-1,-1,-1,-1,-1,-1,-1,-1,-1,-1,-1,-1,-1,-1,-1,-1,-1,-1,-1,-1,-1,-1,-1],"split_conditions":[7.428571E0,3.5E0,1.4E1,2.142857E0,5.142857E0,1.0285714E1,1.9571428E1,1.5714285E0,2.857143E0,4.142857E0,2.8E1,2.5E1,2.5E1,1.5857142E1,2.3E1,1.2857143E0,1.8E0,1.2E1,1.2E1,2.7E1,2.8E1,6.285714E0,1.2E1,8.714286E0,8.857142E0,1.2142858E1,1.2E1,9E0,2E0,9E0,2E0,1.1428572E0,1.3333334E0,2.9E1,1.2E1,2E0,2.8E1,2E0,2.8E1,2E0,1.2E1,2E0,1.2E1,2E0,8E0,6.142857E0,3E0,2E0,5.300995E0,1.2E1,1.4E1,2E0,8E0,1.1714286E1,2.022E3,2E0,4E0,2.022E3,9E0,2E0,1.2E1,6.727462E0,2.9E1,-1.04923904E-1,-9.90451E-2,-9.3364455E-2,-8.800632E-2,-8.011079E-2,-6.6603325E-2,-7.198885E-2,-6.1570525E-2,-1.2068736E-2,-5.588713E-2,-4.5742694E-2,-1.3891018E-2,1.250778E-2,-3.20946E-2,-1.8195884E-2,2.5183832E-2,4.161158E-2,-5.259669E-3,-5.7615894E-3,5.274436E-2,8.622166E-2,2.3420943E-2,3.5738558E-2,1.1254474E-1,1.2896565E-1,6.383388E-2,8.1001654E-2,1.1630948E-1,7.257505E-2,1.1071169E-1,1.1739615E-1,2.013733E-1,2.4310367E-1,1.4258938E-1,1.1876384E-1,2.0718543E-1,1.7234263E-1,2.411301E-1,7.964848E-1,2.8111297E-1,3.952125E-1,2.5655338E-1,2.846365E-1,3.5922903E-1,2.6941404E-1,3.5680684E-1,3.6101243E-1,4.868702E-1,4.8736292E-1,3.4541637E-1,4.0752912E-1,5.060674E-1,4.8950434E-1,9.535902E-1,4.1673598E-1,5.487204E-1,8.383522E-1,5.1773083E-1,6.748818E-1,7.672488E-1,6.6888326E-1,1.4891359E0,8.0912924E-1,1.1829922E0],"split_indices":[13,13,13,13,13,13,13,13,13,13,1,1,1,13,13,13,13,0,0,1,1,13,0,13,13,13,0,1,1,1,1,13,13,1,0,1,1,1,1,1,0,1,0,1,1,13,2,1,9,0,8,1,1,13,5,1,2,5,1,1,0,10,1,0,0,0,0,0,0,0,0,0,0,0,0,0,0,0,0,0,0,0,0,0,0,0,0,0,0,0,0,0,0,0,0,0,0,0,0,0,0,0,0,0,0,0,0,0,0,0,0,0,0,0,0,0,0,0,0,0,0,0,0,0,0,0,0],"split_type":[0,0,0,0,0,0,0,0,0,0,0,0,0,0,0,0,0,0,0,0,0,0,0,0,0,0,0,0,0,0,0,0,0,0,0,0,0,0,0,0,0,0,0,0,0,0,0,0,0,0,0,0,0,0,0,0,0,0,0,0,0,0,0,0,0,0,0,0,0,0,0,0,0,0,0,0,0,0,0,0,0,0,0,0,0,0,0,0,0,0,0,0,0,0,0,0,0,0,0,0,0,0,0,0,0,0,0,0,0,0,0,0,0,0,0,0,0,0,0,0,0,0,0,0,0,0,0],"sum_hessian":[1.10864E5,9.8665E4,1.2199E4,7.3567E4,2.5098E4,9.723E3,2.476E3,4.4667E4,2.89E4,1.4568E4,1.053E4,6.394E3,3.329E3,1.629E3,8.47E2,2.5064E4,1.9603E4,1.7096E4,1.1804E4,6.688E3,7.88E3,9.128E3,1.402E3,4.891E3,1.503E3,2.511E3,8.18E2,8.12E2,8.17E2,4.29E2,4.18E2,1.2193E4,1.2871E4,1.0589E4,9.014E3,9.351E3,7.745E3,6.597E3,5.207E3,5.482E3,1.206E3,6.76E3,1.12E3,5.429E3,3.699E3,5.93E2,8.09E2,2.675E3,2.216E3,8.86E2,6.17E2,1.58E3,9.31E2,3.85E2,4.33E2,2.59E2,5.53E2,3.7E1,7.8E2,1.7E2,2.59E2,2.9E1,3.89E2,5.749E3,6.444E3,6.153E3,6.718E3,9.358E3,1.231E3,4.871E3,4.143E3,3.71E2,8.98E3,6.343E3,1.402E3,2.96E2,6.301E3,4.201E3,1.006E3,2.45E2,5.237E3,5.56E2,6.5E2,3.15E2,6.445E3,4.86E2,6.34E2,2.47E2,5.182E3,1.106E3,2.593E3,3.16E2,2.77E2,2.3E2,5.79E2,1.37E2,2.538E3,2.28E2,1.988E3,3.67E2,5.19E2,4E0,6.13E2,8.7E1,1.493E3,3.86E2,5.45E2,1.83E2,2.02E2,2.39E2,1.94E2,4.2E1,2.17E2,3.14E2,2.39E2,1.8E1,1.9E1,2.02E2,5.78E2,2.3E1,1.47E2,1.32E2,1.27E2,7E0,2.2E1,3.42E2,4.7E1],"tree_param":{"num_deleted":"0","num_feature":"15","num_nodes":"127","size_leaf_vector":"1"}},{"base_weights":[1.9427371E-3,-7.327927E-1,4.951539E0,-1.2641233E0,5.943097E-1,3.7627215E0,1.0386653E1,-1.6028972E0,-8.052411E-1,1.779146E-1,1.4308474E0,3.0226223E0,5.290739E0,8.593306E0,1.3921889E1,-1.8218296E0,-1.4252794E0,-9.927617E-1,-5.779694E-1,6.420083E-2,1.1697575E0,1.0378132E0,1.973461E0,2.7558272E0,4.3995075E0,5.066676E0,7.1512175E0,7.7948494E0,9.778425E0,1.3321771E1,1.9265076E1,-1.9216195E0,-1.7370163E0,-1.4702033E0,-1.1149299E0,-1.0558444E0,-5.3514445E-1,-7.739661E-1,-3.1918266E-1,1.6318275E0,-1.3430852E-4,-1.147762E-2,2.1317122E0,3.4318776E0,9.4513613E-1,1.6600869E0,4.06202E0,2.3980987E0,3.5334368E0,3.114586E0,5.499549E0,4.6255755E0,5.9284863E0,5.291861E0,8.641615E0,1.4099775E1,7.49126E0,9.083647E0,1.3990435E1,1.7760214E1,1.2511729E1,1.11713505E1,2.3941072E1,-9.940362E-2,-9.4015E-2,-8.806788E-2,-8.179783E-2,-7.823111E-2,-6.767413E-2,-7.635703E-2,-4.2239044E-2,-2.1724861E-2,-5.4231476E-2,-5.7537366E-2,-2.6328845E-3,3.521439E-2,-4.2024184E-2,-2.6801545E-2,3.2742813E-2,1.1313613E-1,1.5587482E-2,-1.5799627E-2,1.2551245E-2,-1.5489812E-2,1.965898E-2,9.595605E-2,3.253713E-1,1.3457607E-1,2.3450597E-1,3.2731105E-2,6.307192E-2,6.5023676E-2,9.40667E-2,1.777938E-1,3.6475518E-1,2.3678687E-1,1.1492827E-1,3.096505E-1,1.707443E-1,1.2856619E-1,1.9537239E-1,2.0978998E-1,3.6074874E-1,3.442687E-1,2.2537075E-1,4.196078E-1,2.8977773E-1,2.371002E-1,3.5255447E-1,3.4789684E-1,5.4450387E-1,5.240703E-1,9.827868E-1,3.2832608E-1,4.2393142E-1,3.769847E-1,4.8276836E-1,5.636105E-1,8.885568E-1,8.056993E-1,1.3995025E0,5.043203E-1,6.8147135E-1,5.776293E-1,2.7596202E-1,7.871596E-1,1.3381392E0],"categories":[],"categories_nodes":[],"categories_segments":[],"categories_sizes":[],"default_left":[0,0,0,0,0,0,0,0,0,0,0,0,0,0,0,0,0,0,0,0,0,0,0,0,0,0,0,0,0,0,0,0,0,0,0,0,0,0,0,0,0,0,0,0,0,0,0,0,0,0,0,0,0,0,0,0,0,0,0,0,0,0,0,0,0,0,0,0,0,0,0,0,0,0,0,0,0,0,0,0,0,0,0,0,0,0,0,0,0,0,0,0,0,0,0,0,0,0,0,0,0,0,0,0,0,0,0,0,0,0,0,0,0,0,0,0,0,0,0,0,0,0,0,0,0,0,0],"id":6,"left_children":[1,3,5,7,9,11,13,15,17,19,21,23,25,27,29,31,33,35,37,39,41,43,45,47,49,51,53,55,57,59,61,63,65,67,69,71,73,75,77,79,81,83,85,87,89,91,93,95,97,99,101,103,105,107,109,111,113,115,117,119,121,123,125,-1,-1,-1,-1,-1,-1,-1,-1,-1,-1,-1,-1,-1,-1,-1,-1,-1,-1,-1,-1,-1,-1,-1,-1,-1,-1,-1,-1,-1,-1,-1,-1,-1,-1,-1,-1,-1,-1,-1,-1,-1,-1,-1,-1,-1,-1,-1,-1,-1,-1,-1,-1,-1,-1,-1,-1,-1,-1,-1,-1,-1,-1,-1,-1],"loss_changes":[4.0328925E5,6.808954E4,9.257803E4,1.0718258E4,9.616446E3,1.3286609E4,1.6186625E4,1.5399375E3,1.247627E3,2.079026E3,1.954666E3,2.8998281E3,1.5632812E3,1.5409453E3,2.5138281E3,1.4700781E2,3.0376562E2,4.6264746E2,6.7145605E2,1.6680159E3,2.154439E3,1.1777959E3,2.515046E3,1.8394297E3,1.7991738E3,1.2757188E3,1.0904512E3,1.8582461E3,1.8745859E3,2.5821406E3,2.9494766E3,1.8646484E1,2.0765625E1,2.0873047E2,3.0761792E2,2.5173242E2,5.779407E2,7.415083E2,1.2061981E3,5.4230005E2,1.2604856E3,1.0297253E2,9.5961035E2,1.7182251E2,4.702041E2,2.6425E2,7.9553516E2,1.0484746E3,6.3813477E2,2.4623877E2,1.5151387E3,5.756289E2,3.3027734E2,1.4551855E2,7.79791E2,7.187422E2,8.4003516E2,4.479961E2,7.7597656E2,1.536168E3,1.6597734E3,7.3466797E0,8.04666E2,0E0,0E0,0E0,0E0,0E0,0E0,0E0,0E0,0E0,0E0,0E0,0E0,0E0,0E0,0E0,0E0,0E0,0E0,0E0,0E0,0E0,0E0,0E0,0E0,0E0,0E0,0E0,0E0,0E0,0E0,0E0,0E0,0E0,0E0,0E0,0E0,0E0,0E0,0E0,0E0,0E0,0E0,0E0,0E0,0E0,0E0,0E0,0E0,0E0,0E0,0E0,0E0,0E0,0E0,0E0,0E0,0E0,0E0,0E0,0E0,0E0,0E0,0E0,0E0],"parents":[2147483647,0,0,1,1,2,2,3,3,4,4,5,5,6,6,7,7,8,8,9,9,10,10,11,11,12,12,13,13,14,14,15,15,16,16,17,17,18,18,19,19,20,20,21,21,22,22,23,23,24,24,25,25,26,26,27,27,28,28,29,29,30,30,31,31,32,32,33,33,34,34,35,35,36,36,37,37,38,38,39,39,40,40,41,41,42,42,43,43,44,44,45,45,46,46,47,47,48,48,49,49,50,50,51,51,52,52,53,53,54,54,55,55,56,56,57,57,58,58,59,59,60,60,61,61,62,62],"right_children":[2,4,6,8,10,12,14,16,18,20,22,24,26,28,30,32,34,36,38,40,42,44,46,48,50,52,54,56,58,60,62,64,66,68,70,72,74,76,78,80,82,84,86,88,90,92,94,96,98,100,102,104,106,108,110,112,114,116,118,120,122,124,126,-1,-1,-1,-1,-1,-1,-1,-1,-1,-1,-1,-1,-1,-1,-1,-1,-1,-1,-1,-1,-1,-1,-1,-1,-1,-1,-1,-1,-1,-1,-1,-1,-1,-1,-1,-1,-1,-1,-1,-1,-1,-1,-1,-1,-1,-1,-1,-1,-1,-1,-1,-1,-1,-1,-1,-1,-1,-1,-1,-1,-1,-1,-1,-1],"split_conditions":[6.642857E0,3.2142856E0,1.3428572E1,2E0,4.928571E0,9.642858E0,1.9142857E1,1.4285715E0,2.5714285E0,2.9E1,1.2E1,2.7E1,2.9E1,1.2E1,2.9E1,1.2142857E0,2.9E1,2.9E1,1.2E1,2E0,1.2E1,2E0,2.9E1,8.428572E0,1.2E1,1.1642858E1,1.2E1,2E0,2.8E1,4E0,1.2E1,1.0714285E0,2.7E1,1.7142857E0,1.2E1,2E0,1.2E1,2E0,2.8E1,1.2E1,3.75E0,3.9285715E0,4.1767783E0,1E0,1.6E1,5.428571E0,4.2698917E0,2E0,2E0,8.214286E0,2.022E3,2E0,2E0,1E0,2.022E3,2.023E3,1.5E1,1.4285714E1,2.022E3,8.105E3,8.507939E0,5.702E3,2.021E3,-9.940362E-2,-9.4015E-2,-8.806788E-2,-8.179783E-2,-7.823111E-2,-6.767413E-2,-7.635703E-2,-4.2239044E-2,-2.1724861E-2,-5.4231476E-2,-5.7537366E-2,-2.6328845E-3,3.521439E-2,-4.2024184E-2,-2.6801545E-2,3.2742813E-2,1.1313613E-1,1.5587482E-2,-1.5799627E-2,1.2551245E-2,-1.5489812E-2,1.965898E-2,9.595605E-2,3.253713E-1,1.3457607E-1,2.3450597E-1,3.2731105E-2,6.307192E-2,6.5023676E-2,9.40667E-2,1.777938E-1,3.6475518E-1,2.3678687E-1,1.1492827E-1,3.096505E-1,1.707443E-1,1.2856619E-1,1.9537239E-1,2.0978998E-1,3.6074874E-1,3.442687E-1,2.2537075E-1,4.196078E-1,2.8977773E-1,2.371002E-1,3.5255447E-1,3.4789684E-1,5.4450387E-1,5.240703E-1,9.827868E-1,3.2832608E-1,4.2393142E-1,3.769847E-1,4.8276836E-1,5.636105E-1,8.885568E-1,8.056993E-1,1.3995025E0,5.043203E-1,6.8147135E-1,5.776293E-1,2.7596202E-1,7.871596E-1,1.3381392E0],"split_indices":[14,14,14,14,14,14,14,14,14,1,0,1,1,0,1,14,1,1,0,1,0,1,1,14,0,14,0,1,1,1,0,14,1,14,0,1,0,1,1,0,14,14,10,3,1,14,10,1,1,14,5,1,1,3,5,5,1,14,5,6,10,6,5,0,0,0,0,0,0,0,0,0,0,0,0,0,0,0,0,0,0,0,0,0,0,0,0,0,0,0,0,0,0,0,0,0,0,0,0,0,0,0,0,0,0,0,0,0,0,0,0,0,0,0,0,0,0,0,0,0,0,0,0,0,0,0,0],"split_type":[0,0,0,0,0,0,0,0,0,0,0,0,0,0,0,0,0,0,0,0,0,0,0,0,0,0,0,0,0,0,0,0,0,0,0,0,0,0,0,0,0,0,0,0,0,0,0,0,0,0,0,0,0,0,0,0,0,0,0,0,0,0,0,0,0,0,0,0,0,0,0,0,0,0,0,0,0,0,0,0,0,0,0,0,0,0,0,0,0,0,0,0,0,0,0,0,0,0,0,0,0,0,0,0,0,0,0,0,0,0,0,0,0,0,0,0,0,0,0,0,0,0,0,0,0,0,0],"sum_hessian":[1.10894E5,9.6561E4,1.4333E4,6.8954E4,2.7607E4,1.1762E4,2.571E3,3.9667E4,2.9287E4,1.8433E4,9.174E3,7.926E3,3.836E3,1.708E3,8.63E2,1.7763E4,2.1904E4,1.6045E4,1.3242E4,1.6538E4,1.895E3,5.322E3,3.852E3,6.642E3,1.284E3,3.427E3,4.09E2,1.025E3,6.83E2,7.79E2,8.4E1,8.151E3,9.612E3,1.9131E4,2.773E3,1.41E4,1.945E3,7.534E3,5.708E3,6.51E2,1.5887E4,8.51E2,1.044E3,1.97E2,5.125E3,3.351E3,5.01E2,4.552E3,2.09E3,5.94E2,6.9E2,2.271E3,1.156E3,1.84E2,2.25E2,4.5E1,9.8E2,5.89E2,9.4E1,1.17E2,6.62E2,3.2E1,5.2E1,3.107E3,5.044E3,7.733E3,1.879E3,1.0569E4,8.562E3,1.096E3,1.677E3,6.25E2,1.3475E4,8.54E2,1.091E3,3.24E2,7.21E3,4.669E3,1.039E3,4.4E2,2.11E2,7.037E3,8.85E3,4.9E2,3.61E2,9.97E2,4.7E1,1.26E2,7.1E1,2.673E3,2.452E3,1.279E3,2.072E3,4.35E2,6.6E1,1.84E2,4.368E3,8.7E1,2.003E3,3.55E2,2.39E2,3.94E2,2.96E2,1.1E2,2.161E3,5.6E1,1.1E3,1.43E2,4.1E1,1.31E2,9.4E1,2.9E1,1.6E1,5.1E2,4.7E2,1.63E2,4.26E2,5.7E1,3.7E1,1.03E2,1.4E1,2.12E2,4.5E2,2.9E1,3E0,1.5E1,3.7E1],"tree_param":{"num_deleted":"0","num_feature":"15","num_nodes":"127","size_leaf_vector":"1"}},{"base_weights":[-1.5001307E-3,-7.4497503E-1,4.9238424E0,-1.298296E0,5.261022E-1,3.661843E0,9.998429E0,-1.6017399E0,-8.4175915E-1,5.3366866E-2,1.2961663E0,3.0044804E0,5.287129E0,8.3113575E0,1.4125877E1,-1.7414608E0,-1.3757486E0,-1.0290833E0,-5.878107E-1,-1.2051581E-1,5.1481265E-1,9.966152E-1,1.708556E0,2.3232965E0,3.3961112E0,5.067886E0,6.501513E0,7.487045E0,9.510276E0,1.212126E1,1.6101633E1,-1.8462489E0,-1.6448474E0,-1.4069561E0,-1.144883E0,-1.0943805E0,-7.954831E-1,-7.2089505E-1,-4.2182466E-1,-1.9208848E-1,4.1193184E-1,3.6662498E-1,1.6472672E0,7.0512044E-1,1.3682947E0,1.5324339E0,2.5638516E0,4.5202293E0,2.0518832E0,3.022747E0,4.3025165E0,7.212903E0,4.9392624E0,5.2904086E0,7.3733096E0,6.2431364E0,7.9573445E0,8.043734E0,1.0176807E1,1.0512597E1,1.3057385E1,1.51352005E1,2.3449389E1,-9.498226E-2,-8.983174E-2,-8.47109E-2,-7.974167E-2,-7.278312E-2,-6.441774E-2,-7.402652E-2,-4.4666745E-2,-5.9059452E-2,-4.9498167E-2,-5.420145E-2,-2.7230969E-2,-2.918809E-3,-3.752164E-2,-2.7387861E-2,7.106711E-3,-1.7326137E-2,-2.1579822E-3,-1.38206305E-2,4.635754E-2,7.991103E-2,1.5709903E-2,2.9851038E-2,1.20007396E-1,1.1825346E-1,2.9846046E-2,5.89255E-2,1.2221223E-1,1.3769734E-1,7.358269E-2,8.3240725E-2,1.6330414E-1,2.133932E-1,4.128178E-1,7.569588E-2,1.3569361E-1,1.4209208E-1,1.94131E-1,4.8395187E-1,2.110801E-1,3.9478508E-1,2.6538438E-1,1.9355923E-1,2.6666993E-1,2.7923664E-1,1.6348158E-1,4.2154774E-1,2.8957307E-1,4.2242303E-1,2.880654E-1,8.6446774E-1,3.9370352E-1,6.43876E-1,3.5782653E-1,4.7786927E-1,5.469722E-1,8.077652E-1,4.72368E-1,1.896092E-1,6.5391773E-1,1.1753727E0,7.1007323E-1,6.9589204E-1,1.2384732E0],"categories":[],"categories_nodes":[],"categories_segments":[],"categories_sizes":[],"default_left":[0,0,0,0,0,0,0,0,0,0,0,0,0,0,0,0,0,0,0,0,0,0,0,0,0,0,0,0,0,0,0,0,0,0,0,0,0,0,0,0,0,0,0,0,0,0,0,0,0,0,0,0,0,0,0,0,0,0,0,0,0,0,0,0,0,0,0,0,0,0,0,0,0,0,0,0,0,0,0,0,0,0,0,0,0,0,0,0,0,0,0,0,0,0,0,0,0,0,0,0,0,0,0,0,0,0,0,0,0,0,0,0,0,0,0,0,0,0,0,0,0,0,0,0,0,0,0],"id":7,"left_children":[1,3,5,7,9,11,13,15,17,19,21,23,25,27,29,31,33,35,37,39,41,43,45,47,49,51,53,55,57,59,61,63,65,67,69,71,73,75,77,79,81,83,85,87,89,91,93,95,97,99,101,103,105,107,109,111,113,115,117,119,121,123,125,-1,-1,-1,-1,-1,-1,-1,-1,-1,-1,-1,-1,-1,-1,-1,-1,-1,-1,-1,-1,-1,-1,-1,-1,-1,-1,-1,-1,-1,-1,-1,-1,-1,-1,-1,-1,-1,-1,-1,-1,-1,-1,-1,-1,-1,-1,-1,-1,-1,-1,-1,-1,-1,-1,-1,-1,-1,-1,-1,-1,-1,-1,-1,-1],"loss_changes":[4.0663956E5,6.78585E4,9.323306E4,9.311E3,1.0652732E4,1.2447031E4,2.0076188E4,1.2726328E3,1.2762871E3,1.4550072E3,1.3733301E3,2.2084531E3,8.6110156E2,1.9656562E3,3.1317656E3,2.4954688E2,1.0957422E2,2.3473633E2,2.5145703E2,5.020088E2,8.3226587E2,6.978452E2,7.0135156E2,1.8010234E3,1.7714805E3,7.5039844E2,4.9946875E2,6.6753906E2,7.353281E2,4.9672266E2,2.6275625E3,2.8273438E1,2.9375E1,7.662891E1,1.5428467E2,1.08228516E2,2.4392847E2,1.2371289E2,3.6043726E2,2.6703467E2,5.5386206E2,2.8295477E2,4.524348E2,6.4822205E2,5.7581836E2,2.8438477E2,4.9836572E2,2.7873828E2,9.588594E2,5.704336E2,6.273633E2,1.6493164E2,1.1121797E3,1.1080371E2,4.4304395E2,3.13667E2,5.523906E2,1.0485957E3,1.651875E2,8.091074E2,1.3125E0,2.5898906E3,2.4663281E2,0E0,0E0,0E0,0E0,0E0,0E0,0E0,0E0,0E0,0E0,0E0,0E0,0E0,0E0,0E0,0E0,0E0,0E0,0E0,0E0,0E0,0E0,0E0,0E0,0E0,0E0,0E0,0E0,0E0,0E0,0E0,0E0,0E0,0E0,0E0,0E0,0E0,0E0,0E0,0E0,0E0,0E0,0E0,0E0,0E0,0E0,0E0,0E0,0E0,0E0,0E0,0E0,0E0,0E0,0E0,0E0,0E0,0E0,0E0,0E0,0E0,0E0,0E0,0E0],"parents":[2147483647,0,0,1,1,2,2,3,3,4,4,5,5,6,6,7,7,8,8,9,9,10,10,11,11,12,12,13,13,14,14,15,15,16,16,17,17,18,18,19,19,20,20,21,21,22,22,23,23,24,24,25,25,26,26,27,27,28,28,29,29,30,30,31,31,32,32,33,33,34,34,35,35,36,36,37,37,38,38,39,39,40,40,41,41,42,42,43,43,44,44,45,45,46,46,47,47,48,48,49,49,50,50,51,51,52,52,53,53,54,54,55,55,56,56,57,57,58,58,59,59,60,60,61,61,62,62],"right_children":[2,4,6,8,10,12,14,16,18,20,22,24,26,28,30,32,34,36,38,40,42,44,46,48,50,52,54,56,58,60,62,64,66,68,70,72,74,76,78,80,82,84,86,88,90,92,94,96,98,100,102,104,106,108,110,112,114,116,118,120,122,124,126,-1,-1,-1,-1,-1,-1,-1,-1,-1,-1,-1,-1,-1,-1,-1,-1,-1,-1,-1,-1,-1,-1,-1,-1,-1,-1,-1,-1,-1,-1,-1,-1,-1,-1,-1,-1,-1,-1,-1,-1,-1,-1,-1,-1,-1,-1,-1,-1,-1,-1,-1,-1,-1,-1,-1,-1,-1,-1,-1,-1,-1,-1,-1,-1],"split_conditions":[6.714286E0,3.142857E0,1.3285714E1,2E0,4.714286E0,1E1,1.9571428E1,1.5E0,2.5714285E0,4.142857E0,5.714286E0,1.1E1,2.8E1,1.5857142E1,2.3E1,1.2E0,2.9E1,2.6E1,1.2E1,2.9E1,2.9E1,1.2E1,2.7E1,2E0,8.714286E0,2E0,1.2E1,8E0,1E1,9E0,2.9E1,1.1428572E0,1.3333334E0,1.8E0,1.2E1,2.2857144E0,1.2E1,2E0,2.8E1,3.5E0,1.2E1,2E0,1.2E1,2E0,2.9E1,2E0,1.2E1,6.2643003E0,7.199324E0,2.9E1,6E0,1.2E1,7E0,2.024E3,1.05E1,2E0,5.3986487E0,2E0,2.2E1,2E0,1.1214286E1,2E0,1.2E1,-9.498226E-2,-8.983174E-2,-8.47109E-2,-7.974167E-2,-7.278312E-2,-6.441774E-2,-7.402652E-2,-4.4666745E-2,-5.9059452E-2,-4.9498167E-2,-5.420145E-2,-2.7230969E-2,-2.918809E-3,-3.752164E-2,-2.7387861E-2,7.106711E-3,-1.7326137E-2,-2.1579822E-3,-1.38206305E-2,4.635754E-2,7.991103E-2,1.5709903E-2,2.9851038E-2,1.20007396E-1,1.1825346E-1,2.9846046E-2,5.89255E-2,1.2221223E-1,1.3769734E-1,7.358269E-2,8.3240725E-2,1.6330414E-1,2.133932E-1,4.128178E-1,7.569588E-2,1.3569361E-1,1.4209208E-1,1.94131E-1,4.8395187E-1,2.110801E-1,3.9478508E-1,2.6538438E-1,1.9355923E-1,2.6666993E-1,2.7923664E-1,1.6348158E-1,4.2154774E-1,2.8957307E-1,4.2242303E-1,2.880654E-1,8.6446774E-1,3.9370352E-1,6.43876E-1,3.5782653E-1,4.7786927E-1,5.469722E-1,8.077652E-1,4.72368E-1,1.896092E-1,6.5391773E-1,1.1753727E0,7.1007323E-1,6.9589204E-1,1.2384732E0],"split_indices":[13,13,13,13,13,13,13,13,13,13,13,1,1,13,13,13,1,1,0,1,1,0,1,1,13,1,0,1,1,1,1,13,13,13,0,13,0,1,1,13,0,1,0,1,1,1,0,10,9,1,14,0,1,5,14,1,9,1,1,1,14,1,0,0,0,0,0,0,0,0,0,0,0,0,0,0,0,0,0,0,0,0,0,0,0,0,0,0,0,0,0,0,0,0,0,0,0,0,0,0,0,0,0,0,0,0,0,0,0,0,0,0,0,0,0,0,0,0,0,0,0,0,0,0,0,0,0],"split_type":[0,0,0,0,0,0,0,0,0,0,0,0,0,0,0,0,0,0,0,0,0,0,0,0,0,0,0,0,0,0,0,0,0,0,0,0,0,0,0,0,0,0,0,0,0,0,0,0,0,0,0,0,0,0,0,0,0,0,0,0,0,0,0,0,0,0,0,0,0,0,0,0,0,0,0,0,0,0,0,0,0,0,0,0,0,0,0,0,0,0,0,0,0,0,0,0,0,0,0,0,0,0,0,0,0,0,0,0,0,0,0,0,0,0,0,0,0,0,0,0,0,0,0,0,0,0,0],"sum_hessian":[1.11045E5,9.6482E4,1.4563E4,6.722E4,2.9262E4,1.1664E4,2.899E3,4.0379E4,2.6841E4,1.8132E4,1.113E4,8.307E3,3.357E3,2.06E3,8.39E2,2.4948E4,1.5431E4,1.5445E4,1.1396E4,1.317E4,4.962E3,6.449E3,4.681E3,3.035E3,5.272E3,2.848E3,5.09E2,1.225E3,8.35E2,4.2E2,4.19E2,1.1959E4,1.2989E4,1.3589E4,1.842E3,1.2068E4,3.377E3,6.323E3,5.073E3,1.161E4,1.56E3,4.389E3,5.73E2,3.616E3,2.833E3,3.884E3,7.97E2,3.32E2,2.703E3,3.737E3,1.535E3,1.58E2,2.69E3,2.16E2,2.93E2,3.4E2,8.85E2,2.65E2,5.7E2,1.59E2,2.61E2,3.73E2,4.6E1,5.742E3,6.217E3,6.52E3,6.469E3,9.625E3,3.964E3,7.87E2,1.055E3,6.584E3,5.484E3,1.569E3,1.808E3,2.7E2,6.053E3,4.147E3,9.26E2,5.699E3,5.911E3,6.68E2,8.92E2,1.78E2,4.211E3,2.4E2,3.33E2,2.2E2,3.396E3,2.41E3,4.23E2,1.82E2,3.702E3,3.51E2,4.46E2,3.13E2,1.9E1,1.493E3,1.21E3,3.091E3,6.46E2,2.1E1,1.514E3,1.14E2,4.4E1,7.28E2,1.962E3,1.87E2,2.9E1,1.73E2,1.2E2,5.8E1,2.82E2,6E0,8.79E2,3.9E1,2.26E2,3.22E2,2.48E2,2.3E1,1.36E2,1E0,2.6E2,3.5E1,3.38E2,7E0,3.9E1],"tree_param":{"num_deleted":"0","num_feature":"15","num_nodes":"127","size_leaf_vector":"1"}},{"base_weights":[2.6765433E-3,-7.073848E-1,4.6522717E0,-1.2057494E0,5.734217E-1,3.471278E0,9.475064E0,-1.521218E0,-7.713915E-1,1.4892079E-1,1.2893118E0,2.676742E0,4.717392E0,7.957891E0,1.3164356E1,-1.6515158E0,-1.3115292E0,-9.7347206E-1,-5.424685E-1,-4.177823E-2,4.9109298E-1,1.13718E0,2.0559025E0,2.048397E0,3.0327275E0,4.1159368E0,5.3979263E0,7.1446877E0,9.133921E0,1.1297806E1,1.5103865E1,-1.7549055E0,-1.5567328E0,-1.3923889E0,-1.2277937E0,-1.0833304E0,-8.4006256E-1,-6.356824E-1,-2.496936E-1,-1.216297E-1,5.622854E-1,3.462094E-1,1.1512885E0,8.4415483E-1,1.4722897E0,1.2892908E0,2.6654615E0,4.0711346E0,1.80868E0,2.5586991E0,3.456141E0,3.8311067E0,5.5018444E0,5.1484184E0,6.712713E0,6.7744102E0,9.178607E0,1.30376215E1,8.915097E0,9.885737E0,1.2188489E1,1.4249531E1,2.1678831E1,-9.023232E-2,-8.542086E-2,-7.986861E-2,-7.5494014E-2,-4.394526E-2,-7.060935E-2,-6.441178E-2,-4.2112187E-2,-3.31879E-2,-5.5937607E-2,-4.7226567E-2,-2.3575287E-2,-4.507968E-3,-3.310361E-2,1.2102306E-2,-1.9793857E-2,2.6673982E-2,-7.442663E-3,-8.820201E-3,5.43297E-2,6.858382E-2,1.4764323E-2,2.4449702E-2,8.4951624E-2,9.157743E-2,3.951145E-2,1.3114806E-1,7.093599E-2,4.1800473E-2,7.715427E-2,8.7070815E-2,1.5600784E-1,1.6358161E-1,2.9250515E-1,7.084136E-2,1.3071051E-1,1.2000938E-1,1.6918127E-1,2.6427847E-1,1.6612741E-1,1.5879594E-1,2.0975605E-1,4.70011E-1,2.511692E-1,2.2646272E-1,2.7419043E-1,4.4010398E-1,2.7177128E-1,2.97258E-1,3.5827836E-1,3.312543E-1,5.5611974E-1,4.3822843E-1,7.938611E-1,3.460816E-1,4.85258E-1,7.671091E-1,4.4702503E-1,5.5414534E-1,6.7752415E-1,1.1041245E0,6.727011E-1,5.4483604E-1,1.1529107E0],"categories":[],"categories_nodes":[],"categories_segments":[],"categories_sizes":[],"default_left":[0,0,0,0,0,0,0,0,0,0,0,0,0,0,0,0,0,0,0,0,0,0,0,0,0,0,0,0,0,0,0,0,0,0,0,0,0,0,0,0,0,0,0,0,0,0,0,0,0,0,0,0,0,0,0,0,0,0,0,0,0,0,0,0,0,0,0,0,0,0,0,0,0,0,0,0,0,0,0,0,0,0,0,0,0,0,0,0,0,0,0,0,0,0,0,0,0,0,0,0,0,0,0,0,0,0,0,0,0,0,0,0,0,0,0,0,0,0,0,0,0,0,0,0,0,0,0],"id":8,"left_children":[1,3,5,7,9,11,13,15,17,19,21,23,25,27,29,31,33,35,37,39,41,43,45,47,49,51,53,55,57,59,61,63,65,67,69,71,73,75,77,79,81,83,85,87,89,91,93,95,97,99,101,103,105,107,109,111,113,115,117,119,121,123,125,-1,-1,-1,-1,-1,-1,-1,-1,-1,-1,-1,-1,-1,-1,-1,-1,-1,-1,-1,-1,-1,-1,-1,-1,-1,-1,-1,-1,-1,-1,-1,-1,-1,-1,-1,-1,-1,-1,-1,-1,-1,-1,-1,-1,-1,-1,-1,-1,-1,-1,-1,-1,-1,-1,-1,-1,-1,-1,-1,-1,-1,-1,-1,-1],"loss_changes":[3.650565E5,6.1229793E4,8.340328E4,9.4611875E3,8.165495E3,1.1639656E4,1.60210625E4,1.0907422E3,1.343582E3,1.1007548E3,1.164125E3,1.601832E3,1.8528281E3,1.8895312E3,2.8630781E3,2.39E2,1.0212305E2,2.2525E2,3.7167725E2,5.226021E2,5.7704944E2,8.1849414E2,7.69937E2,1.254792E3,9.118164E2,9.4053516E2,6.694375E2,8.5134375E2,5.9447656E2,4.2157812E2,1.9829062E3,2.4179688E1,2.2107422E1,7.7993164E1,1.7466797E2,1.2497461E2,2.6803418E2,1.4871143E2,2.3673878E2,1.7073691E2,4.901278E2,2.5818756E2,3.93135E2,2.3581714E2,2.3624902E2,8.326453E1,3.815337E2,3.7199023E2,7.3144336E2,2.7536816E2,5.7388477E2,4.6939648E2,7.2311426E2,3.5061328E2,8.568535E2,2.915E2,8.3959766E2,3.7046143E2,1.1786172E3,7.499453E2,2.4133203E2,1.9710547E3,4.1801172E2,0E0,0E0,0E0,0E0,0E0,0E0,0E0,0E0,0E0,0E0,0E0,0E0,0E0,0E0,0E0,0E0,0E0,0E0,0E0,0E0,0E0,0E0,0E0,0E0,0E0,0E0,0E0,0E0,0E0,0E0,0E0,0E0,0E0,0E0,0E0,0E0,0E0,0E0,0E0,0E0,0E0,0E0,0E0,0E0,0E0,0E0,0E0,0E0,0E0,0E0,0E0,0E0,0E0,0E0,0E0,0E0,0E0,0E0,0E0,0E0,0E0,0E0,0E0,0E0],"parents":[2147483647,0,0,1,1,2,2,3,3,4,4,5,5,6,6,7,7,8,8,9,9,10,10,11,11,12,12,13,13,14,14,15,15,16,16,17,17,18,18,19,19,20,20,21,21,22,22,23,23,24,24,25,25,26,26,27,27,28,28,29,29,30,30,31,31,32,32,33,33,34,34,35,35,36,36,37,37,38,38,39,39,40,40,41,41,42,42,43,43,44,44,45,45,46,46,47,47,48,48,49,49,50,50,51,51,52,52,53,53,54,54,55,55,56,56,57,57,58,58,59,59,60,60,61,61,62,62],"right_children":[2,4,6,8,10,12,14,16,18,20,22,24,26,28,30,32,34,36,38,40,42,44,46,48,50,52,54,56,58,60,62,64,66,68,70,72,74,76,78,80,82,84,86,88,90,92,94,96,98,100,102,104,106,108,110,112,114,116,118,120,122,124,126,-1,-1,-1,-1,-1,-1,-1,-1,-1,-1,-1,-1,-1,-1,-1,-1,-1,-1,-1,-1,-1,-1,-1,-1,-1,-1,-1,-1,-1,-1,-1,-1,-1,-1,-1,-1,-1,-1,-1,-1,-1,-1,-1,-1,-1,-1,-1,-1,-1,-1,-1,-1,-1,-1,-1,-1,-1,-1,-1,-1,-1,-1,-1,-1],"split_conditions":[6.714286E0,3.2857144E0,1.3285714E1,2E0,4.857143E0,9.285714E0,1.9571428E1,1.5E0,2.5714285E0,4.142857E0,2.7E1,1.1E1,1.0857142E1,1.5857142E1,2.3E1,1.2E0,1.2E1,1.2E1,2.5E1,2.9E1,2.7E1,5.714286E0,1.2E1,2E0,7.714286E0,2.7E1,2.8E1,2.8E1,2E0,9E0,2.9E1,1.1428572E0,1.4285715E0,2E0,2.9E1,3E0,2.7E1,2E0,2.357143E0,2E0,1.2E1,2E0,1.2E1,2E0,2E0,5.428571E0,3E0,6.401E3,1.2E1,2.9E1,6.214286E0,9E0,7.5E0,8E0,1.05E1,1.4E1,1.2E1,2.022E3,1E1,2E0,4E0,2E0,1.2E1,-9.023232E-2,-8.542086E-2,-7.986861E-2,-7.5494014E-2,-4.394526E-2,-7.060935E-2,-6.441178E-2,-4.2112187E-2,-3.31879E-2,-5.5937607E-2,-4.7226567E-2,-2.3575287E-2,-4.507968E-3,-3.310361E-2,1.2102306E-2,-1.9793857E-2,2.6673982E-2,-7.442663E-3,-8.820201E-3,5.43297E-2,6.858382E-2,1.4764323E-2,2.4449702E-2,8.4951624E-2,9.157743E-2,3.951145E-2,1.3114806E-1,7.093599E-2,4.1800473E-2,7.715427E-2,8.7070815E-2,1.5600784E-1,1.6358161E-1,2.9250515E-1,7.084136E-2,1.3071051E-1,1.2000938E-1,1.6918127E-1,2.6427847E-1,1.6612741E-1,1.5879594E-1,2.0975605E-1,4.70011E-1,2.511692E-1,2.2646272E-1,2.7419043E-1,4.4010398E-1,2.7177128E-1,2.97258E-1,3.5827836E-1,3.312543E-1,5.5611974E-1,4.3822843E-1,7.938611E-1,3.460816E-1,4.85258E-1,7.671091E-1,4.4702503E-1,5.5414534E-1,6.7752415E-1,1.1041245E0,6.727011E-1,5.4483604E-1,1.1529107E0],"split_indices":[13,13,13,13,13,13,13,13,13,13,1,1,13,13,13,13,0,0,1,1,1,13,0,1,13,1,1,1,1,1,1,13,13,1,1,1,1,1,14,1,0,1,0,1,1,13,2,6,0,1,14,1,14,1,14,13,0,5,1,1,2,1,0,0,0,0,0,0,0,0,0,0,0,0,0,0,0,0,0,0,0,0,0,0,0,0,0,0,0,0,0,0,0,0,0,0,0,0,0,0,0,0,0,0,0,0,0,0,0,0,0,0,0,0,0,0,0,0,0,0,0,0,0,0,0,0,0],"split_type":[0,0,0,0,0,0,0,0,0,0,0,0,0,0,0,0,0,0,0,0,0,0,0,0,0,0,0,0,0,0,0,0,0,0,0,0,0,0,0,0,0,0,0,0,0,0,0,0,0,0,0,0,0,0,0,0,0,0,0,0,0,0,0,0,0,0,0,0,0,0,0,0,0,0,0,0,0,0,0,0,0,0,0,0,0,0,0,0,0,0,0,0,0,0,0,0,0,0,0,0,0,0,0,0,0,0,0,0,0,0,0,0,0,0,0,0,0,0,0,0,0,0,0,0,0,0,0],"sum_hessian":[1.10571E5,9.5923E4,1.4648E4,6.9054E4,2.6869E4,1.1768E4,2.88E3,4E4,2.9054E4,1.6868E4,1.0001E4,7.188E3,4.58E3,2.043E3,8.37E2,2.4666E4,1.5334E4,1.543E4,1.3624E4,1.0832E4,6.036E3,8.347E3,1.654E3,2.602E3,4.586E3,2.435E3,2.145E3,1.212E3,8.31E2,4.3E2,4.07E2,1.1789E4,1.2877E4,7.793E3,7.541E3,8.458E3,6.972E3,1.0333E4,3.291E3,9.568E3,1.264E3,4.951E3,1.085E3,4.455E3,3.892E3,7.34E2,9.2E2,2.74E2,2.328E3,2.167E3,2.419E3,2.023E3,4.12E2,1.807E3,3.38E2,1.029E3,1.83E2,4.1E1,7.9E2,1.71E2,2.59E2,3.63E2,4.4E1,5.677E3,6.112E3,6.878E3,5.999E3,2.91E2,7.502E3,6.517E3,1.024E3,6.6E2,7.798E3,5.431E3,1.541E3,4.77E2,9.856E3,7.54E2,2.537E3,3.81E2,9.187E3,5.25E2,7.39E2,2.33E2,4.718E3,4.92E2,5.93E2,2.29E2,4.226E3,1.71E2,3.721E3,2.65E2,4.69E2,3.05E2,6.15E2,1.91E2,8.3E1,1.568E3,7.6E2,1.821E3,3.46E2,1.62E2,2.257E3,7.26E2,1.297E3,4.3E1,3.69E2,6.4E2,1.167E3,1.26E2,2.12E2,3.35E2,6.94E2,8.1E1,1.02E2,1.8E1,2.3E1,2.27E2,5.63E2,2.3E1,1.48E2,1.48E2,1.11E2,3.1E1,3.32E2,6E0,3.8E1],"tree_param":{"num_deleted":"0","num_feature":"15","num_nodes":"127","size_leaf_vector":"1"}},{"base_weights":[-8.004986E-3,-6.435575E-1,4.1153426E0,-1.0808685E0,4.7587076E-1,3.1475785E0,8.8945265E0,-1.3907908E0,-7.1366286E-1,6.7958914E-2,1.0477201E0,2.425691E0,4.371847E0,7.340772E0,1.1915916E1,-1.538017E0,-1.2080407E0,-8.76665E-1,-4.8753217E-1,-1.6525696E-1,4.056391E-1,6.759973E-1,1.5515678E0,2.2214832E0,3.4887722E0,4.154935E0,6.1756682E0,3.5578625E0,7.6174765E0,1.1401992E1,1.6423851E1,-1.6229423E0,-1.4448811E0,-1.2537187E0,-9.7346973E-1,-9.334501E-1,-4.67735E-1,-5.5950385E-1,5.3728905E-2,1.9601233E0,-2.5011104E-1,1.8085143E-1,1.4399754E0,2.7944527E0,5.937011E-1,1.2550184E0,3.0554364E0,4.286446E0,2.1273086E0,2.3102243E0,4.5348496E0,6.8940096E0,4.0249434E0,4.7216253E0,7.386009E0,8.791264E0,1.8326544E0,7.1073656E0,9.072803E0,1.5176889E1,1.074663E1,5.537976E-1,1.9189796E1,-8.422388E-2,-7.868102E-2,-7.322809E-2,-6.487098E-2,-4.52605E-2,-6.355708E-2,-6.6929474E-2,-3.5818238E-2,-2.3881167E-2,-4.773212E-2,-5.10101E-2,-2.9569191E-3,1.4861914E-2,-2.9870851E-2,-3.585871E-2,3.523148E-2,8.475062E-2,2.255833E-1,-1.9982286E-2,3.1133885E-3,-5.5350927E-3,1.9506495E-2,5.027919E-2,1.04162835E-1,1.1762897E-1,3.1789607E-1,1.1152401E-2,4.306638E-2,4.3354265E-2,7.646326E-2,1.3816422E-1,3.4741578E-1,2.6385054E-1,9.8376006E-2,7.799077E-2,1.2623511E-1,9.762378E-2,1.5208611E-1,1.7561385E-1,2.918188E-1,2.7094325E-1,4.2297348E-1,1.7478229E-1,2.3371558E-1,3.290197E-2,2.4844348E-1,2.8938547E-1,4.6424404E-1,2.3066881E-1,6.3198125E-1,2.7555434E-2,3.0491385E-1,3.2493758E-1,3.9160874E-1,4.2398605E-1,6.405192E-1,9.3714345E-1,6.3493717E-1,4.1466746E-1,5.981308E-1,1.0028528E0,-1.11963175E-1],"categories":[],"categories_nodes":[],"categories_segments":[],"categories_sizes":[],"default_left":[0,0,0,0,0,0,0,0,0,0,0,0,0,0,0,0,0,0,0,0,0,0,0,0,0,0,0,0,0,0,0,0,0,0,0,0,0,0,0,0,0,0,0,0,0,0,0,0,0,0,0,0,0,0,0,0,0,0,0,0,0,0,0,0,0,0,0,0,0,0,0,0,0,0,0,0,0,0,0,0,0,0,0,0,0,0,0,0,0,0,0,0,0,0,0,0,0,0,0,0,0,0,0,0,0,0,0,0,0,0,0,0,0,0,0,0,0,0,0,0,0,0,0,0,0],"id":9,"left_children":[1,3,5,7,9,11,13,15,17,19,21,23,25,27,29,31,33,35,37,39,41,43,45,47,49,51,53,55,57,59,61,63,65,67,69,71,73,75,77,79,81,83,85,87,89,91,93,95,97,99,101,103,105,107,109,111,113,115,117,119,121,-1,123,-1,-1,-1,-1,-1,-1,-1,-1,-1,-1,-1,-1,-1,-1,-1,-1,-1,-1,-1,-1,-1,-1,-1,-1,-1,-1,-1,-1,-1,-1,-1,-1,-1,-1,-1,-1,-1,-1,-1,-1,-1,-1,-1,-1,-1,-1,-1,-1,-1,-1,-1,-1,-1,-1,-1,-1,-1,-1,-1,-1,-1,-1],"loss_changes":[2.8986497E5,4.6916887E4,6.82943E4,7.842E3,6.280098E3,1.0847578E4,1.1587734E4,1.00365625E3,1.1623154E3,1.2376608E3,2.0983037E3,1.6705664E3,1.7569688E3,1.6947969E3,1.7657422E3,1.6133984E2,1.7749219E2,4.25208E2,5.1486523E2,1.6769978E3,1.4924283E3,1.1231877E3,2.1180986E3,1.252582E3,1.5231914E3,1.4214062E3,8.221914E2,1.0131614E3,1.0728438E3,1.7170859E3,1.0299824E3,3.0175781E1,2.6769531E1,8.359961E1,2.5466016E2,1.550127E2,5.0491153E2,3.7907788E2,7.7926996E2,2.3384229E2,4.1762537E2,3.219016E2,3.1813892E2,3.6452148E2,6.160171E2,4.2167822E2,8.713154E2,6.373843E2,1.3958535E3,1.4767456E2,8.552363E2,3.767578E2,1.3200039E3,2.2178271E2,7.4749316E2,3.918733E2,4.722326E2,4.5155078E2,7.6475195E2,7.3406055E2,1.8428203E3,0E0,1.0484766E3,0E0,0E0,0E0,0E0,0E0,0E0,0E0,0E0,0E0,0E0,0E0,0E0,0E0,0E0,0E0,0E0,0E0,0E0,0E0,0E0,0E0,0E0,0E0,0E0,0E0,0E0,0E0,0E0,0E0,0E0,0E0,0E0,0E0,0E0,0E0,0E0,0E0,0E0,0E0,0E0,0E0,0E0,0E0,0E0,0E0,0E0,0E0,0E0,0E0,0E0,0E0,0E0,0E0,0E0,0E0,0E0,0E0,0E0,0E0,0E0,0E0,0E0],"parents":[2147483647,0,0,1,1,2,2,3,3,4,4,5,5,6,6,7,7,8,8,9,9,10,10,11,11,12,12,13,13,14,14,15,15,16,16,17,17,18,18,19,19,20,20,21,21,22,22,23,23,24,24,25,25,26,26,27,27,28,28,29,29,30,30,31,31,32,32,33,33,34,34,35,35,36,36,37,37,38,38,39,39,40,40,41,41,42,42,43,43,44,44,45,45,46,46,47,47,48,48,49,49,50,50,51,51,52,52,53,53,54,54,55,55,56,56,57,57,58,58,59,59,60,60,62,62],"right_children":[2,4,6,8,10,12,14,16,18,20,22,24,26,28,30,32,34,36,38,40,42,44,46,48,50,52,54,56,58,60,62,64,66,68,70,72,74,76,78,80,82,84,86,88,90,92,94,96,98,100,102,104,106,108,110,112,114,116,118,120,122,-1,124,-1,-1,-1,-1,-1,-1,-1,-1,-1,-1,-1,-1,-1,-1,-1,-1,-1,-1,-1,-1,-1,-1,-1,-1,-1,-1,-1,-1,-1,-1,-1,-1,-1,-1,-1,-1,-1,-1,-1,-1,-1,-1,-1,-1,-1,-1,-1,-1,-1,-1,-1,-1,-1,-1,-1,-1,-1,-1,-1,-1,-1,-1],"split_conditions":[6.5E0,3.2142856E0,1.3428572E1,1.9285715E0,4.571429E0,9.2E0,1.9142857E1,1.4615384E0,2.5714285E0,1.2E1,1.2E1,2.7E1,2.9E1,8.350877E0,2.9E1,1.25E0,2.8E1,2.9E1,2.9E1,2E0,2.8E1,2E0,2.8E1,2E0,1.2E1,2E0,1.2E1,5E0,1.6857143E1,4E0,1.2E1,1.1E0,2.9E1,2E0,1.2E1,2E0,1.2E1,2E0,1.2E1,3.373565E0,3.7019231E0,3.642857E0,2.5576756E0,4.364749E0,4.3271604E0,5.214286E0,4.7945905E0,1.2E1,6.421466E0,8.214286E0,2.022E3,2.022E3,1.0857142E1,9.428572E0,2.022E3,4.4778376E0,1.4E1,1.2E1,2.8E1,1.792043E1,1.7984945E1,5.537976E-1,5E0,-8.422388E-2,-7.868102E-2,-7.322809E-2,-6.487098E-2,-4.52605E-2,-6.355708E-2,-6.6929474E-2,-3.5818238E-2,-2.3881167E-2,-4.773212E-2,-5.10101E-2,-2.9569191E-3,1.4861914E-2,-2.9870851E-2,-3.585871E-2,3.523148E-2,8.475062E-2,2.255833E-1,-1.9982286E-2,3.1133885E-3,-5.5350927E-3,1.9506495E-2,5.027919E-2,1.04162835E-1,1.1762897E-1,3.1789607E-1,1.1152401E-2,4.306638E-2,4.3354265E-2,7.646326E-2,1.3816422E-1,3.4741578E-1,2.6385054E-1,9.8376006E-2,7.799077E-2,1.2623511E-1,9.762378E-2,1.5208611E-1,1.7561385E-1,2.918188E-1,2.7094325E-1,4.2297348E-1,1.7478229E-1,2.3371558E-1,3.290197E-2,2.4844348E-1,2.8938547E-1,4.6424404E-1,2.3066881E-1,6.3198125E-1,2.7555434E-2,3.0491385E-1,3.2493758E-1,3.9160874E-1,4.2398605E-1,6.405192E-1,9.3714345E-1,6.3493717E-1,4.1466746E-1,5.981308E-1,1.0028528E0,-1.11963175E-1],"split_indices":[14,14,14,14,14,14,14,14,14,0,0,1,1,9,1,14,1,1,1,1,1,1,1,1,0,1,0,1,14,1,0,14,1,1,0,1,0,1,0,10,9,14,10,10,9,14,10,0,9,14,5,5,14,14,5,10,1,0,1,9,9,0,7,0,0,0,0,0,0,0,0,0,0,0,0,0,0,0,0,0,0,0,0,0,0,0,0,0,0,0,0,0,0,0,0,0,0,0,0,0,0,0,0,0,0,0,0,0,0,0,0,0,0,0,0,0,0,0,0,0,0,0,0,0,0],"split_type":[0,0,0,0,0,0,0,0,0,0,0,0,0,0,0,0,0,0,0,0,0,0,0,0,0,0,0,0,0,0,0,0,0,0,0,0,0,0,0,0,0,0,0,0,0,0,0,0,0,0,0,0,0,0,0,0,0,0,0,0,0,0,0,0,0,0,0,0,0,0,0,0,0,0,0,0,0,0,0,0,0,0,0,0,0,0,0,0,0,0,0,0,0,0,0,0,0,0,0,0,0,0,0,0,0,0,0,0,0,0,0,0,0,0,0,0,0,0,0,0,0,0,0,0,0],"sum_hessian":[1.10608E5,9.5837E4,1.4771E4,6.8915E4,2.6922E4,1.2285E4,2.486E3,3.7371E4,3.1544E4,1.5714E4,1.1208E4,7.73E3,4.555E3,1.644E3,8.42E2,2.0693E4,1.6678E4,1.8329E4,1.3215E4,9.295E3,6.419E3,6.451E3,4.757E3,6.487E3,1.243E3,4.069E3,4.86E2,1.13E2,1.531E3,7.59E2,8.3E1,1.0815E4,9.878E3,1.3956E4,2.722E3,1.6093E4,2.236E3,1.1664E4,1.551E3,3.56E2,8.939E3,5.274E3,1.145E3,2.4E2,6.211E3,3.975E3,7.82E2,2.81E2,6.206E3,5.86E2,6.57E2,1.82E2,3.887E3,2.23E2,2.63E2,2.7E1,8.6E1,1.138E3,3.93E2,1.09E2,6.5E2,3E1,5.3E1,4.797E3,6.018E3,8.707E3,1.171E3,6.67E2,1.3289E4,1.123E3,1.599E3,7.16E2,1.5377E4,9.5E2,1.286E3,4.94E2,1.117E4,7.1E2,8.41E2,3.24E2,3.2E1,6.045E3,2.894E3,2.204E3,3.07E3,6.85E2,4.6E2,2.15E2,2.5E1,2.605E3,3.606E3,1.648E3,2.327E3,7.29E2,5.3E1,1.96E2,8.5E1,2.558E3,3.648E3,3.96E2,1.9E2,3.7E2,2.87E2,9.6E1,8.6E1,2.145E3,1.742E3,1.3E1,2.1E2,1.45E2,1.18E2,1.4E1,1.3E1,6.7E1,1.9E1,6.24E2,5.14E2,3.42E2,5.1E1,4.2E1,6.7E1,2.18E2,4.32E2,5.1E1,2E0],"tree_param":{"num_deleted":"0","num_feature":"15","num_nodes":"125","size_leaf_vector":"1"}},{"base_weights":[6.646989E-3,-6.557319E-1,4.1566787E0,-1.1215237E0,4.332184E-1,3.1878088E0,9.132856E0,-1.3486347E0,-6.637579E-1,8.1221126E-2,1.1448298E0,2.517258E0,4.541973E0,8.185048E0,1.3766656E1,-1.4985236E0,-1.1554037E0,-7.844731E-1,-4.5500615E-1,-8.985853E-2,4.6071944E-1,9.133862E-1,1.4486519E0,2.1415102E0,3.0934753E0,3.774252E0,5.0364523E0,7.1175094E0,9.740227E0,1.2200684E1,1.6136705E1,-1.5896671E0,-1.416164E0,-1.2362784E0,-1.0598524E0,-9.0505767E-1,-6.4053774E-1,-5.9127563E-1,-2.7887264E-1,-2.4551336E-1,1.11844584E-1,2.2088192E-1,7.92499E-1,7.041054E-1,1.1840247E0,1.2000254E0,1.8003105E0,1.8076317E0,2.5934696E0,2.7027757E0,3.5983396E0,3.5076654E0,4.1278815E0,4.5707493E0,5.791219E0,6.708026E0,7.877197E0,8.904589E0,1.1003448E1,1.4925783E1,9.5879E0,1.3020815E1,1.7809134E1,-8.170185E-2,-7.740804E-2,-7.308098E-2,-6.8590574E-2,-6.601646E-2,-5.7703525E-2,-5.73498E-2,-4.781338E-2,-4.96012E-2,-4.0210642E-2,-3.9419916E-2,-2.726005E-2,-4.6236344E-2,-2.8883046E-2,-2.3580622E-2,-1.0647058E-2,-1.8802743E-2,-6.1283372E-3,-8.426015E-5,1.5808292E-2,5.928629E-3,1.6288174E-2,7.1049765E-2,3.3190437E-2,5.4132133E-3,4.052938E-2,8.8194735E-2,5.2764323E-2,4.4276726E-2,6.795927E-2,3.166887E-1,8.875064E-2,6.418943E-2,9.918156E-2,1.9108255E-1,1.22901976E-1,1.22131065E-1,1.6694996E-1,-4.4783544E-2,1.8087173E-1,1.7425507E-1,4.741868E-1,1.7247671E-1,2.3140518E-1,1.868269E-1,2.4392326E-1,6.6636235E-1,2.8417367E-1,3.1033266E-1,3.7065133E-1,1.0912722E-1,4.0188813E-1,3.8616022E-1,4.7449374E-1,4.9267694E-1,6.2151146E-1,8.7083495E-1,6.0338396E-1,2.621629E-1,5.5354613E-1,7.435778E-1,5.499918E-1,9.1487616E-1,4.2137644E-1],"categories":[],"categories_nodes":[],"categories_segments":[],"categories_sizes":[],"default_left":[0,0,0,0,0,0,0,0,0,0,0,0,0,0,0,0,0,0,0,0,0,0,0,0,0,0,0,0,0,0,0,0,0,0,0,0,0,0,0,0,0,0,0,0,0,0,0,0,0,0,0,0,0,0,0,0,0,0,0,0,0,0,0,0,0,0,0,0,0,0,0,0,0,0,0,0,0,0,0,0,0,0,0,0,0,0,0,0,0,0,0,0,0,0,0,0,0,0,0,0,0,0,0,0,0,0,0,0,0,0,0,0,0,0,0,0,0,0,0,0,0,0,0,0,0,0,0],"id":10,"left_children":[1,3,5,7,9,11,13,15,17,19,21,23,25,27,29,31,33,35,37,39,41,43,45,47,49,51,53,55,57,59,61,63,65,67,69,71,73,75,77,79,81,83,85,87,89,91,93,95,97,99,101,103,105,107,109,111,113,115,117,119,121,123,125,-1,-1,-1,-1,-1,-1,-1,-1,-1,-1,-1,-1,-1,-1,-1,-1,-1,-1,-1,-1,-1,-1,-1,-1,-1,-1,-1,-1,-1,-1,-1,-1,-1,-1,-1,-1,-1,-1,-1,-1,-1,-1,-1,-1,-1,-1,-1,-1,-1,-1,-1,-1,-1,-1,-1,-1,-1,-1,-1,-1,-1,-1,-1,-1],"loss_changes":[3.0422825E5,4.840996E4,7.341328E4,6.9487656E3,7.162282E3,1.1567836E4,1.0788141E4,1.2923125E3,5.58291E2,1.2421759E3,6.640928E2,1.8404414E3,1.5837656E3,3.3557031E3,1.3619141E3,1.8660547E2,1.4955078E2,2.4319043E2,1.9484839E2,4.140788E2,4.728877E2,3.0354688E2,3.5543457E2,7.7500977E2,6.5401953E2,1.4182617E2,8.751172E2,3.2885547E2,7.855547E2,1.6867617E3,6.227344E2,1.9449219E1,2.4658203E1,7.1490234E1,7.974707E1,6.620557E1,8.98728E1,2.0258179E1,4.4960785E1,1.194274E2,1.3326471E2,3.7002594E1,2.007749E2,1.9234546E2,1.7297241E2,1.1887671E2,1.828081E2,2.7173633E2,3.5537305E2,3.0649023E2,1.2895703E2,9.532031E1,2.239375E2,3.901797E2,7.159336E2,2.3817969E2,3.7014844E2,2.7865625E2,4.1729688E2,6.726133E2,8.053428E2,6.457422E1,3.223086E2,0E0,0E0,0E0,0E0,0E0,0E0,0E0,0E0,0E0,0E0,0E0,0E0,0E0,0E0,0E0,0E0,0E0,0E0,0E0,0E0,0E0,0E0,0E0,0E0,0E0,0E0,0E0,0E0,0E0,0E0,0E0,0E0,0E0,0E0,0E0,0E0,0E0,0E0,0E0,0E0,0E0,0E0,0E0,0E0,0E0,0E0,0E0,0E0,0E0,0E0,0E0,0E0,0E0,0E0,0E0,0E0,0E0,0E0,0E0,0E0,0E0,0E0,0E0,0E0],"parents":[2147483647,0,0,1,1,2,2,3,3,4,4,5,5,6,6,7,7,8,8,9,9,10,10,11,11,12,12,13,13,14,14,15,15,16,16,17,17,18,18,19,19,20,20,21,21,22,22,23,23,24,24,25,25,26,26,27,27,28,28,29,29,30,30,31,31,32,32,33,33,34,34,35,35,36,36,37,37,38,38,39,39,40,40,41,41,42,42,43,43,44,44,45,45,46,46,47,47,48,48,49,49,50,50,51,51,52,52,53,53,54,54,55,55,56,56,57,57,58,58,59,59,60,60,61,61,62,62],"right_children":[2,4,6,8,10,12,14,16,18,20,22,24,26,28,30,32,34,36,38,40,42,44,46,48,50,52,54,56,58,60,62,64,66,68,70,72,74,76,78,80,82,84,86,88,90,92,94,96,98,100,102,104,106,108,110,112,114,116,118,120,122,124,126,-1,-1,-1,-1,-1,-1,-1,-1,-1,-1,-1,-1,-1,-1,-1,-1,-1,-1,-1,-1,-1,-1,-1,-1,-1,-1,-1,-1,-1,-1,-1,-1,-1,-1,-1,-1,-1,-1,-1,-1,-1,-1,-1,-1,-1,-1,-1,-1,-1,-1,-1,-1,-1,-1,-1,-1,-1,-1,-1,-1,-1,-1,-1,-1],"split_conditions":[6.571429E0,3.142857E0,1.4E1,2.142857E0,4.857143E0,9.714286E0,2.3E1,1.5714285E0,2.7142856E0,4.142857E0,5.714286E0,8.142858E0,1.0857142E1,1.7428572E1,1.2E1,1.2E0,1.8E0,1.2E1,1.2E1,1.2E1,1.2E1,1.2E1,1.2E1,1.2E1,1.2E1,4E0,1.2E1,1.5857142E1,1.2E1,3E0,2.021E3,1.1428572E0,1.3333334E0,1.2E1,1.2E1,2.4285715E0,3E0,1.8166667E0,2E0,3.5E0,3.7142856E0,3.7019231E0,2.9096386E0,2.214814E0,3.4604905E0,4.4961243E0,2.5309734E0,4.8923445E0,4.1473355E0,7.108E3,2.5904763E0,2.1E1,4.7119727E0,8.350877E0,5.204023E0,4E0,4.424377E0,1.4529033E1,2.022E3,1.792043E1,1.4529033E1,3E0,5E0,-8.170185E-2,-7.740804E-2,-7.308098E-2,-6.8590574E-2,-6.601646E-2,-5.7703525E-2,-5.73498E-2,-4.781338E-2,-4.96012E-2,-4.0210642E-2,-3.9419916E-2,-2.726005E-2,-4.6236344E-2,-2.8883046E-2,-2.3580622E-2,-1.0647058E-2,-1.8802743E-2,-6.1283372E-3,-8.426015E-5,1.5808292E-2,5.928629E-3,1.6288174E-2,7.1049765E-2,3.3190437E-2,5.4132133E-3,4.052938E-2,8.8194735E-2,5.2764323E-2,4.4276726E-2,6.795927E-2,3.166887E-1,8.875064E-2,6.418943E-2,9.918156E-2,1.9108255E-1,1.22901976E-1,1.22131065E-1,1.6694996E-1,-4.4783544E-2,1.8087173E-1,1.7425507E-1,4.741868E-1,1.7247671E-1,2.3140518E-1,1.868269E-1,2.4392326E-1,6.6636235E-1,2.8417367E-1,3.1033266E-1,3.7065133E-1,1.0912722E-1,4.0188813E-1,3.8616022E-1,4.7449374E-1,4.9267694E-1,6.2151146E-1,8.7083495E-1,6.0338396E-1,2.621629E-1,5.5354613E-1,7.435778E-1,5.499918E-1,9.1487616E-1,4.2137644E-1],"split_indices":[13,13,13,13,13,13,13,13,13,13,13,13,13,13,0,13,13,0,0,0,0,0,0,0,0,2,0,13,0,2,5,13,13,0,0,13,2,9,2,13,13,9,9,10,9,9,9,9,9,6,9,11,10,9,9,2,10,9,5,9,9,2,7,0,0,0,0,0,0,0,0,0,0,0,0,0,0,0,0,0,0,0,0,0,0,0,0,0,0,0,0,0,0,0,0,0,0,0,0,0,0,0,0,0,0,0,0,0,0,0,0,0,0,0,0,0,0,0,0,0,0,0,0,0,0,0,0],"split_type":[0,0,0,0,0,0,0,0,0,0,0,0,0,0,0,0,0,0,0,0,0,0,0,0,0,0,0,0,0,0,0,0,0,0,0,0,0,0,0,0,0,0,0,0,0,0,0,0,0,0,0,0,0,0,0,0,0,0,0,0,0,0,0,0,0,0,0,0,0,0,0,0,0,0,0,0,0,0,0,0,0,0,0,0,0,0,0,0,0,0,0,0,0,0,0,0,0,0,0,0,0,0,0,0,0,0,0,0,0,0,0,0,0,0,0,0,0,0,0,0,0,0,0,0,0,0,0],"sum_hessian":[1.10671E5,9.5439E4,1.5232E4,6.6846E4,2.8593E4,1.2751E4,2.481E3,4.4678E4,2.2168E4,1.9131E4,9.462E3,8.53E3,4.221E3,2.062E3,4.19E2,2.5157E4,1.9521E4,1.4044E4,8.124E3,1.3187E4,5.944E3,5.373E3,4.089E3,5.166E3,3.364E3,1.657E3,2.564E3,1.226E3,8.36E2,2.56E2,1.63E2,1.1933E4,1.3224E4,1.0566E4,8.955E3,7.639E3,6.405E3,4.579E3,3.545E3,7.443E3,5.744E3,3.451E3,2.493E3,3.032E3,2.341E3,2.398E3,1.691E3,2.974E3,2.192E3,1.9E3,1.464E3,9.51E2,7.06E2,1.59E3,9.74E2,8.03E2,4.23E2,5.08E2,3.28E2,1.23E2,1.33E2,6E1,1.03E2,5.749E3,6.184E3,6.515E3,6.709E3,5.217E3,5.349E3,4.858E3,4.097E3,4.097E3,3.542E3,2.508E3,3.897E3,1.77E2,4.402E3,9.02E2,2.643E3,3.609E3,3.834E3,3.693E3,2.051E3,1.748E3,1.703E3,4.22E2,2.071E3,4.6E2,2.572E3,4.23E2,1.918E3,8.08E2,1.59E3,8E0,1.683E3,7.5E2,2.224E3,2.15E2,1.977E3,1.352E3,5.48E2,6E0,1.458E3,9.49E2,2E0,3.03E2,4.03E2,4.32E2,1.158E3,1.2E1,9.62E2,4.75E2,3.28E2,1.2E1,4.11E2,1.73E2,3.35E2,1.86E2,1.42E2,6.3E1,6E1,3.5E1,9.8E1,2.8E1,3.2E1,9.7E1,6E0],"tree_param":{"num_deleted":"0","num_feature":"15","num_nodes":"127","size_leaf_vector":"1"}},{"base_weights":[2.7498635E-3,-5.8105123E-1,3.760408E0,-9.6095675E-1,4.5818967E-1,2.9603295E0,8.588985E0,-1.2366089E0,-6.0303724E-1,1.7499577E-1,1.077261E0,2.2104418E0,4.1079845E0,7.0276012E0,1.0810954E1,-1.3863554E0,-1.0706607E0,-7.550399E-1,-4.1585913E-1,-3.8753986E-2,4.832992E-1,7.5389487E-1,1.5225861E0,1.9982854E0,3.3141303E0,3.7395306E0,5.2177067E0,6.1963315E0,8.233429E0,1.7514717E1,1.0450191E1,-1.4670011E0,-1.3005005E0,-1.1115371E0,-7.9230493E-1,3.1867665E-1,-8.060078E-1,-5.7007986E-1,2.6409554E-1,1.3064055E0,-1.5228505E-1,2.6935986E-1,1.5013051E0,2.0599244E0,6.5367436E-1,1.2089713E0,2.750217E0,1.5390154E0,2.3788261E0,2.2470586E0,4.2398257E0,3.4707727E0,5.1032333E0,1.1504135E0,5.3820076E0,1.2651128E1,5.9251037E0,7.5385613E0,1.3358387E1,6.4130205E-1,2.2265394E1,9.180156E0,1.2411359E1,-7.59882E-2,-7.120092E-2,-6.70499E-2,-6.0462814E-2,-3.880294E-2,-5.640002E-2,-5.7416357E-2,-2.7592698E-2,-3.8182978E-2,3.267905E-2,-4.7272056E-2,-3.2965172E-2,-3.6194585E-2,-1.9247781E-2,-6.9044936E-3,3.9906327E-2,5.5290103E-2,1.9188535E-1,-1.7792566E-2,9.1922E-3,1.7884132E-3,2.6743604E-2,7.2061986E-2,4.405644E-1,8.886853E-2,1.9842862E-1,9.99239E-3,4.3224644E-2,8.984839E-1,5.9804697E-2,1.3338737E-1,8.09278E-1,2.0745988E-1,6.9909096E-2,8.869615E-2,1.3312349E-1,7.282593E-2,1.24296285E-1,1.9793841E-1,3.9256018E-1,3.0759296E-1,1.6673182E-1,1.9330046E-1,3.0826855E-1,3.824269E-1,-4.264677E-3,2.590763E-1,3.4238598E-1,4.2056513E-1,1.2387341E0,2.2770391E-1,3.3653915E-1,3.4233385E-1,4.223407E-1,5.5083966E-1,1.039829E0,5.93827E-1,1.4100794E0,3.1986937E-1,4.928332E-1,5.024771E-1,7.484959E-1],"categories":[],"categories_nodes":[],"categories_segments":[],"categories_sizes":[],"default_left":[0,0,0,0,0,0,0,0,0,0,0,0,0,0,0,0,0,0,0,0,0,0,0,0,0,0,0,0,0,0,0,0,0,0,0,0,0,0,0,0,0,0,0,0,0,0,0,0,0,0,0,0,0,0,0,0,0,0,0,0,0,0,0,0,0,0,0,0,0,0,0,0,0,0,0,0,0,0,0,0,0,0,0,0,0,0,0,0,0,0,0,0,0,0,0,0,0,0,0,0,0,0,0,0,0,0,0,0,0,0,0,0,0,0,0,0,0,0,0,0,0,0,0,0,0],"id":11,"left_children":[1,3,5,7,9,11,13,15,17,19,21,23,25,27,29,31,33,35,37,39,41,43,45,47,49,51,53,55,57,59,61,63,65,67,69,71,73,75,77,79,81,83,85,87,89,91,93,95,97,99,101,103,105,107,109,111,113,115,117,-1,119,121,123,-1,-1,-1,-1,-1,-1,-1,-1,-1,-1,-1,-1,-1,-1,-1,-1,-1,-1,-1,-1,-1,-1,-1,-1,-1,-1,-1,-1,-1,-1,-1,-1,-1,-1,-1,-1,-1,-1,-1,-1,-1,-1,-1,-1,-1,-1,-1,-1,-1,-1,-1,-1,-1,-1,-1,-1,-1,-1,-1,-1,-1,-1],"loss_changes":[2.4279706E5,3.7821586E4,5.7471188E4,6.9204375E3,4.495822E3,1.0980086E4,7.2616875E3,9.833047E2,8.681123E2,1.1596573E3,1.1579336E3,1.8022188E3,2.0432969E3,1.1969336E3,1.9234531E3,1.4230078E2,2.1305273E2,9.219922E2,1.4347825E3,1.5873907E3,1.5687833E3,6.0925977E2,1.2999111E3,1.1292051E3,1.2192744E3,1.3717109E3,8.3247266E2,1.2223242E3,1.6976875E3,6.7222266E2,1.9508906E3,2.2175781E1,3.5689453E1,8.966016E1,2.0576233E2,2.774332E2,3.2830176E2,3.1726685E2,5.435022E2,4.0655652E2,6.559145E2,3.6931836E2,5.3658545E2,1.7199255E2,4.144829E2,5.6082837E2,7.191294E2,1.0749458E3,6.031738E2,1.05903076E2,6.4389746E2,1.1365117E3,7.935371E2,4.0214127E2,3.1890234E2,1.2822637E3,7.5693164E2,2.230664E2,7.985039E2,0E0,8.984668E2,8.9140625E2,1.8013984E3,0E0,0E0,0E0,0E0,0E0,0E0,0E0,0E0,0E0,0E0,0E0,0E0,0E0,0E0,0E0,0E0,0E0,0E0,0E0,0E0,0E0,0E0,0E0,0E0,0E0,0E0,0E0,0E0,0E0,0E0,0E0,0E0,0E0,0E0,0E0,0E0,0E0,0E0,0E0,0E0,0E0,0E0,0E0,0E0,0E0,0E0,0E0,0E0,0E0,0E0,0E0,0E0,0E0,0E0,0E0,0E0,0E0,0E0,0E0,0E0,0E0,0E0],"parents":[2147483647,0,0,1,1,2,2,3,3,4,4,5,5,6,6,7,7,8,8,9,9,10,10,11,11,12,12,13,13,14,14,15,15,16,16,17,17,18,18,19,19,20,20,21,21,22,22,23,23,24,24,25,25,26,26,27,27,28,28,29,29,30,30,31,31,32,32,33,33,34,34,35,35,36,36,37,37,38,38,39,39,40,40,41,41,42,42,43,43,44,44,45,45,46,46,47,47,48,48,49,49,50,50,51,51,52,52,53,53,54,54,55,55,56,56,57,57,58,58,60,60,61,61,62,62],"right_children":[2,4,6,8,10,12,14,16,18,20,22,24,26,28,30,32,34,36,38,40,42,44,46,48,50,52,54,56,58,60,62,64,66,68,70,72,74,76,78,80,82,84,86,88,90,92,94,96,98,100,102,104,106,108,110,112,114,116,118,-1,120,122,124,-1,-1,-1,-1,-1,-1,-1,-1,-1,-1,-1,-1,-1,-1,-1,-1,-1,-1,-1,-1,-1,-1,-1,-1,-1,-1,-1,-1,-1,-1,-1,-1,-1,-1,-1,-1,-1,-1,-1,-1,-1,-1,-1,-1,-1,-1,-1,-1,-1,-1,-1,-1,-1,-1,-1,-1,-1,-1,-1,-1,-1,-1],"split_conditions":[6.5E0,3.2857144E0,1.4285714E1,2E0,5E0,9.2E0,1.9142857E1,1.4615384E0,1.2E1,1.2E1,1.2E1,2.7E1,1.2214286E1,1.2E1,2E0,1.2222222E0,2.9E1,2E0,2.8E1,3E0,2.8E1,3E0,2.7E1,6.53937E0,1.2E1,2.7E1,5.3986487E0,2E0,2.9E1,2.022E3,1.2E1,1.1E0,2.022E3,2E0,1.2E1,2.021E3,2.5714285E0,2.5714285E0,1.9876255E0,3.7174287E0,3.7173333E0,4E0,7.579728E0,4.08887E0,4.0833335E0,2.4019608E0,1.1875E1,2E0,7.5E0,6.928571E0,5.8189716E0,2E0,1.2E1,4E0,2.9E1,7.4E1,1.1E1,4E0,7.579728E0,6.4130205E-1,8.507939E0,1.4529033E1,2.2357143E1,-7.59882E-2,-7.120092E-2,-6.70499E-2,-6.0462814E-2,-3.880294E-2,-5.640002E-2,-5.7416357E-2,-2.7592698E-2,-3.8182978E-2,3.267905E-2,-4.7272056E-2,-3.2965172E-2,-3.6194585E-2,-1.9247781E-2,-6.9044936E-3,3.9906327E-2,5.5290103E-2,1.9188535E-1,-1.7792566E-2,9.1922E-3,1.7884132E-3,2.6743604E-2,7.2061986E-2,4.405644E-1,8.886853E-2,1.9842862E-1,9.99239E-3,4.3224644E-2,8.984839E-1,5.9804697E-2,1.3338737E-1,8.09278E-1,2.0745988E-1,6.9909096E-2,8.869615E-2,1.3312349E-1,7.282593E-2,1.24296285E-1,1.9793841E-1,3.9256018E-1,3.0759296E-1,1.6673182E-1,1.9330046E-1,3.0826855E-1,3.824269E-1,-4.264677E-3,2.590763E-1,3.4238598E-1,4.2056513E-1,1.2387341E0,2.2770391E-1,3.3653915E-1,3.4233385E-1,4.223407E-1,5.5083966E-1,1.039829E0,5.93827E-1,1.4100794E0,3.1986937E-1,4.928332E-1,5.024771E-1,7.484959E-1],"split_indices":[14,14,14,14,14,14,14,14,0,0,0,1,14,0,1,14,1,1,1,1,1,1,1,9,0,1,9,1,1,5,0,14,5,1,0,5,14,14,10,10,9,14,10,10,9,9,9,1,14,14,10,1,0,1,1,8,1,2,10,0,10,9,14,0,0,0,0,0,0,0,0,0,0,0,0,0,0,0,0,0,0,0,0,0,0,0,0,0,0,0,0,0,0,0,0,0,0,0,0,0,0,0,0,0,0,0,0,0,0,0,0,0,0,0,0,0,0,0,0,0,0,0,0,0,0],"split_type":[0,0,0,0,0,0,0,0,0,0,0,0,0,0,0,0,0,0,0,0,0,0,0,0,0,0,0,0,0,0,0,0,0,0,0,0,0,0,0,0,0,0,0,0,0,0,0,0,0,0,0,0,0,0,0,0,0,0,0,0,0,0,0,0,0,0,0,0,0,0,0,0,0,0,0,0,0,0,0,0,0,0,0,0,0,0,0,0,0,0,0,0,0,0,0,0,0,0,0,0,0,0,0,0,0,0,0,0,0,0,0,0,0,0,0,0,0,0,0,0,0,0,0,0,0],"sum_hessian":[1.10676E5,9.5794E4,1.4882E4,7.015E4,2.5644E4,1.2768E4,2.114E3,3.9628E4,3.0522E4,1.7596E4,8.048E3,7.724E3,5.044E3,1.244E3,8.7E2,2.0827E4,1.8801E4,1.6842E4,1.368E4,1.0392E4,7.204E3,4.664E3,3.384E3,6.481E3,1.243E3,3.79E3,1.254E3,7.4E2,5.04E2,4.2E1,8.28E2,1.0731E4,1.0096E4,1.6391E4,2.41E3,7.63E2,1.6079E4,1.1151E4,2.529E3,8.08E2,9.584E3,5.954E3,1.25E3,3.31E2,4.333E3,2.697E3,6.87E2,2.939E3,3.542E3,5.79E2,6.64E2,3.169E3,6.21E2,4.9E1,1.205E3,2.8E1,7.12E2,4.46E2,5.8E1,2.3E1,1.9E1,5.06E2,3.22E2,4.802E3,5.929E3,6.983E3,3.113E3,7.69E2,1.5622E4,9.7E2,1.44E3,1.8E2,5.83E2,8.241E3,7.838E3,6.089E3,5.062E3,1.443E3,1.086E3,7.5E2,5.8E1,5.969E3,3.615E3,3.168E3,2.786E3,1.241E3,9E0,2.9E2,4.1E1,1.375E3,2.958E3,1E0,2.696E3,6.84E2,3E0,1.49E2,2.79E3,1.133E3,2.409E3,1.36E2,4.43E2,6.18E2,4.6E1,1.51E2,3.018E3,2.89E2,3.32E2,7E0,4.2E1,1.064E3,1.41E2,2.2E1,6E0,2.66E2,4.46E2,2.58E2,1.88E2,4.6E1,1.2E1,8E0,1.1E1,1.01E2,4.05E2,1.7E2,1.52E2],"tree_param":{"num_deleted":"0","num_feature":"15","num_nodes":"125","size_leaf_vector":"1"}},{"base_weights":[-1.3314808E-3,-5.27477E-1,4.2547193E0,-9.4330657E-1,6.925129E-1,3.2373102E0,8.258403E0,-1.2209476E0,-5.122961E-1,2.6608163E-1,1.2884398E0,2.640292E0,4.3783617E0,6.8111978E0,1.1050192E1,-1.3574724E0,-1.045168E0,-6.733332E-1,-2.779768E-1,1.918932E-2,4.739116E-1,1.0385555E0,1.6256708E0,2.3220875E0,3.1150143E0,4.010084E0,4.9716825E0,6.406829E0,8.038615E0,9.42258E0,1.2718045E1,-1.4403492E0,-1.2823236E0,-1.1206878E0,-9.574201E-1,-7.787881E-1,-5.4544723E-1,-4.157333E-1,-1.019482E-1,-1.3265683E-1,2.2973956E-1,2.4808364E-1,7.770303E-1,8.463227E-1,1.3996803E0,1.3471559E0,1.9592777E0,1.960017E0,2.7990522E0,3.4364336E0,2.5807488E0,3.695494E0,4.4383073E0,4.510791E0,5.73072E0,5.892852E0,7.08225E0,7.3000793E0,9.183178E0,8.6609335E0,1.0482916E1,1.1524224E1,1.4478357E1,-7.39889E-2,-7.0177585E-2,-6.363705E-2,-7.5931184E-2,-5.302585E-2,-6.0676146E-2,-4.2882834E-2,-5.1984645E-2,-4.4289302E-2,-3.4621857E-2,-2.012632E-2,-3.546545E-2,-2.4439123E-2,-1.4248567E-2,2.8142089E-2,-8.057506E-3,-1.33221075E-2,9.29226E-4,6.2626034E-2,7.8046406E-3,1.22274E-2,4.0838146E-1,8.459106E-2,3.1128144E-2,2.8053287E-2,4.9197186E-2,4.845782E-2,7.825643E-2,5.3567816E-2,8.282617E-2,9.688323E-2,3.290255E-1,7.338213E-2,1.1793361E-1,2.4451473E-1,1.3092367E-1,1.5031114E-1,1.9637655E-1,-7.8008818E-3,1.3164388E-1,1.8626422E-1,-9.505321E-2,4.4919634E-1,2.174026E-1,1.6724026E-1,2.3812036E-1,3.3086693E-1,2.4338298E-1,4.8879394E-1,2.900016E-1,7.278843E-1,3.476812E-1,5.1839473E-3,3.693888E-1,3.7383488E-1,5.5761373E-1,3.8628668E-1,5.0212944E-1,3.2639807E-1,5.564615E-1,6.815395E-1,4.713152E-1,5.530126E-1,8.1060266E-1],"categories":[],"categories_nodes":[],"categories_segments":[],"categories_sizes":[],"default_left":[0,0,0,0,0,0,0,0,0,0,0,0,0,0,0,0,0,0,0,0,0,0,0,0,0,0,0,0,0,0,0,0,0,0,0,0,0,0,0,0,0,0,0,0,0,0,0,0,0,0,0,0,0,0,0,0,0,0,0,0,0,0,0,0,0,0,0,0,0,0,0,0,0,0,0,0,0,0,0,0,0,0,0,0,0,0,0,0,0,0,0,0,0,0,0,0,0,0,0,0,0,0,0,0,0,0,0,0,0,0,0,0,0,0,0,0,0,0,0,0,0,0,0,0,0,0,0],"id":12,"left_children":[1,3,5,7,9,11,13,15,17,19,21,23,25,27,29,31,33,35,37,39,41,43,45,47,49,51,53,55,57,59,61,63,65,67,69,71,73,75,77,79,81,83,85,87,89,91,93,95,97,99,101,103,105,107,109,111,113,115,117,119,121,123,125,-1,-1,-1,-1,-1,-1,-1,-1,-1,-1,-1,-1,-1,-1,-1,-1,-1,-1,-1,-1,-1,-1,-1,-1,-1,-1,-1,-1,-1,-1,-1,-1,-1,-1,-1,-1,-1,-1,-1,-1,-1,-1,-1,-1,-1,-1,-1,-1,-1,-1,-1,-1,-1,-1,-1,-1,-1,-1,-1,-1,-1,-1,-1,-1],"loss_changes":[2.482692E5,5.0057234E4,4.9660438E4,8.805492E3,6.373795E3,6.6154297E3,9.908297E3,1.0726641E3,1.0878003E3,7.502694E2,8.7993164E2,9.578789E2,7.098828E2,7.575156E2,2.165875E3,1.5502344E2,1.2861133E2,2.3002783E2,2.8478735E2,2.1372626E2,5.432529E2,4.1616895E2,4.1092188E2,6.557637E2,4.3091602E2,2.6191797E2,4.2018945E2,3.8561328E2,2.7108203E2,2.5647656E2,7.010703E2,1.5291016E1,2.8E1,5.7433594E1,7.346289E1,8.589404E1,1.8065161E2,6.2799072E1,2.0309323E2,7.859331E1,2.1078842E2,1.2543375E2,4.778308E2,1.5357227E2,1.4713916E2,2.0547607E2,1.8930469E2,4.244453E2,6.10292E2,3.2538867E2,1.3822412E2,2.0665039E2,3.1786914E2,2.1818848E2,3.3355762E2,1.9739648E2,4.0550195E2,1.5574414E2,4.3073242E2,2.5319727E2,3.7467383E2,9.8078516E2,7.866211E2,0E0,0E0,0E0,0E0,0E0,0E0,0E0,0E0,0E0,0E0,0E0,0E0,0E0,0E0,0E0,0E0,0E0,0E0,0E0,0E0,0E0,0E0,0E0,0E0,0E0,0E0,0E0,0E0,0E0,0E0,0E0,0E0,0E0,0E0,0E0,0E0,0E0,0E0,0E0,0E0,0E0,0E0,0E0,0E0,0E0,0E0,0E0,0E0,0E0,0E0,0E0,0E0,0E0,0E0,0E0,0E0,0E0,0E0,0E0,0E0,0E0,0E0,0E0,0E0],"parents":[2147483647,0,0,1,1,2,2,3,3,4,4,5,5,6,6,7,7,8,8,9,9,10,10,11,11,12,12,13,13,14,14,15,15,16,16,17,17,18,18,19,19,20,20,21,21,22,22,23,23,24,24,25,25,26,26,27,27,28,28,29,29,30,30,31,31,32,32,33,33,34,34,35,35,36,36,37,37,38,38,39,39,40,40,41,41,42,42,43,43,44,44,45,45,46,46,47,47,48,48,49,49,50,50,51,51,52,52,53,53,54,54,55,55,56,56,57,57,58,58,59,59,60,60,61,61,62,62],"right_children":[2,4,6,8,10,12,14,16,18,20,22,24,26,28,30,32,34,36,38,40,42,44,46,48,50,52,54,56,58,60,62,64,66,68,70,72,74,76,78,80,82,84,86,88,90,92,94,96,98,100,102,104,106,108,110,112,114,116,118,120,122,124,126,-1,-1,-1,-1,-1,-1,-1,-1,-1,-1,-1,-1,-1,-1,-1,-1,-1,-1,-1,-1,-1,-1,-1,-1,-1,-1,-1,-1,-1,-1,-1,-1,-1,-1,-1,-1,-1,-1,-1,-1,-1,-1,-1,-1,-1,-1,-1,-1,-1,-1,-1,-1,-1,-1,-1,-1,-1,-1,-1,-1,-1,-1,-1,-1],"split_conditions":[7.428571E0,3.5E0,1.4E1,2.142857E0,5.142857E0,1.0285714E1,1.9571428E1,1.5714285E0,2.857143E0,4.142857E0,1.2E1,8.857142E0,1.2142858E1,1.7428572E1,2.3E1,1.2E0,1.8E0,1.2E1,1.2E1,1.2E1,1.2E1,6.428571E0,4E0,1.2E1,9.428572E0,4E0,1.2E1,1.2E1,1.2E1,1.2E1,1.2E1,1.1428572E0,2.2857144E0,1.7857143E0,1.9285715E0,2.4285715E0,2.357143E0,3.2857144E0,2.2857144E0,3.2840579E0,2.7142856E0,1.4529033E1,3.4285715E0,3.9372196E0,4.831063E0,6.142857E0,2E1,4.802E3,5.785714E0,1.2E1,5.3986487E0,1.6857143E1,6.714286E0,8.237726E0,1.2214286E1,9.428572E0,5.7070217E0,1.303E3,4E0,4E0,2.019E3,3E0,2.021E3,-7.39889E-2,-7.0177585E-2,-6.363705E-2,-7.5931184E-2,-5.302585E-2,-6.0676146E-2,-4.2882834E-2,-5.1984645E-2,-4.4289302E-2,-3.4621857E-2,-2.012632E-2,-3.546545E-2,-2.4439123E-2,-1.4248567E-2,2.8142089E-2,-8.057506E-3,-1.33221075E-2,9.29226E-4,6.2626034E-2,7.8046406E-3,1.22274E-2,4.0838146E-1,8.459106E-2,3.1128144E-2,2.8053287E-2,4.9197186E-2,4.845782E-2,7.825643E-2,5.3567816E-2,8.282617E-2,9.688323E-2,3.290255E-1,7.338213E-2,1.1793361E-1,2.4451473E-1,1.3092367E-1,1.5031114E-1,1.9637655E-1,-7.8008818E-3,1.3164388E-1,1.8626422E-1,-9.505321E-2,4.4919634E-1,2.174026E-1,1.6724026E-1,2.3812036E-1,3.3086693E-1,2.4338298E-1,4.8879394E-1,2.900016E-1,7.278843E-1,3.476812E-1,5.1839473E-3,3.693888E-1,3.7383488E-1,5.5761373E-1,3.8628668E-1,5.0212944E-1,3.2639807E-1,5.564615E-1,6.815395E-1,4.713152E-1,5.530126E-1,8.1060266E-1],"split_indices":[13,13,13,13,13,13,13,13,13,13,0,13,13,13,13,13,13,0,0,0,0,13,2,0,14,2,0,0,0,0,0,13,14,14,14,13,14,13,14,9,14,9,14,9,9,13,7,6,14,0,9,14,14,9,14,14,9,6,2,2,5,2,5,0,0,0,0,0,0,0,0,0,0,0,0,0,0,0,0,0,0,0,0,0,0,0,0,0,0,0,0,0,0,0,0,0,0,0,0,0,0,0,0,0,0,0,0,0,0,0,0,0,0,0,0,0,0,0,0,0,0,0,0,0,0,0,0],"split_type":[0,0,0,0,0,0,0,0,0,0,0,0,0,0,0,0,0,0,0,0,0,0,0,0,0,0,0,0,0,0,0,0,0,0,0,0,0,0,0,0,0,0,0,0,0,0,0,0,0,0,0,0,0,0,0,0,0,0,0,0,0,0,0,0,0,0,0,0,0,0,0,0,0,0,0,0,0,0,0,0,0,0,0,0,0,0,0,0,0,0,0,0,0,0,0,0,0,0,0,0,0,0,0,0,0,0,0,0,0,0,0,0,0,0,0,0,0,0,0,0,0,0,0,0,0,0,0],"sum_hessian":[1.10867E5,9.867E4,1.2197E4,7.3588E4,2.5082E4,9.727E3,2.47E3,4.4756E4,2.8832E4,1.4621E4,1.0461E4,6.388E3,3.339E3,1.629E3,8.41E2,2.5187E4,1.9569E4,1.7087E4,1.1745E4,6.683E3,7.938E3,6.011E3,4.45E3,3.828E3,2.56E3,2.065E3,1.274E3,1.23E3,3.99E2,4.29E2,4.12E2,1.1969E4,1.3218E4,1.0511E4,9.058E3,9.362E3,7.725E3,6.588E3,5.157E3,3.883E3,2.8E3,4.55E3,3.388E3,3.925E3,2.086E3,2.428E3,2.022E3,2.179E3,1.649E3,1.595E3,9.65E2,1.196E3,8.69E2,7.97E2,4.77E2,7.04E2,5.26E2,2.47E2,1.52E2,2.55E2,1.74E2,2.5E2,1.62E2,5.759E3,6.21E3,1.2709E4,5.09E2,6.385E3,4.126E3,4.099E3,4.959E3,4.177E3,5.185E3,4.128E3,3.597E3,4.225E3,2.363E3,4.21E2,4.736E3,2.06E3,1.823E3,1.87E2,2.613E3,4.549E3,1E0,4.88E2,2.9E3,1.279E3,2.646E3,5.81E2,1.505E3,1.286E3,1.142E3,2.014E3,8E0,9.77E2,1.202E3,1.29E2,1.52E3,8.54E2,7.41E2,1.8E1,9.47E2,1.19E3,6E0,1.5E1,8.54E2,1.44E2,6.53E2,2.32E2,2.45E2,1.4E1,6.9E2,7E0,5.19E2,3E0,2.44E2,8.4E1,6.8E1,1.56E2,9.9E1,2.6E1,1.48E2,1.22E2,1.28E2,5.7E1,1.05E2],"tree_param":{"num_deleted":"0","num_feature":"15","num_nodes":"127","size_leaf_vector":"1"}},{"base_weights":[-1.9219315E-3,-4.9974474E-1,3.5649753E0,-8.346646E-1,5.884037E-1,2.7124076E0,7.2420936E0,-1.1036893E0,-4.8315993E-1,2.7834207E-1,1.0705634E0,2.10068E0,3.5643752E0,5.978544E0,9.729779E0,-1.2284658E0,-9.3556625E-1,-6.3746846E-1,-3.1222463E-1,3.8126208E-2,6.2874043E-1,7.553095E-1,1.5220073E0,1.8101594E0,2.5316985E0,3.179747E0,4.023855E0,3.1238542E0,6.1962886E0,8.493145E0,1.10386715E1,-1.3220283E0,-1.1529384E0,-1.0145586E0,-8.606451E-1,-7.6508856E-1,-4.9053425E-1,-4.6047312E-1,-1.1859478E-1,-9.818762E-2,3.352179E-1,5.644444E-1,1.58419E0,4.2781824E-1,9.5012707E-1,8.7359965E-1,1.5129105E0,1.352358E0,2.2455602E0,2.2123642E0,2.9877827E0,2.9341912E0,3.5276296E0,1.3529218E0,4.1281075E0,5.530807E0,1.7437303E0,5.605389E0,6.9896297E0,-1.1113888E0,8.539015E0,6.5983567E0,1.1894738E1,-6.839107E-2,-6.4040616E-2,-6.0902406E-2,-5.484402E-2,-5.077214E-2,1.6725786E-1,-4.7765296E-2,-3.7496336E-2,-4.196186E-2,-3.3471763E-2,-3.413646E-2,-2.1095995E-2,-2.6046732E-2,-1.4049219E-2,-1.0367918E-2,1.1921684E-2,-2.9396048E-2,-3.6716312E-3,1.2518272E-2,4.505403E-2,1.6554575E-2,3.4910265E-2,7.105064E-2,4.2523882E-1,1.2805259E-1,2.056032E-2,2.7135506E-2,5.3474467E-2,6.300882E-2,9.110836E-2,-1.8412067E-3,7.036175E-2,8.2603596E-2,1.2142052E-1,1.02593064E-1,1.3535084E-1,1.3558935E-1,1.9688001E-1,1.4589669E-1,6.7244494E-1,3.8895893E-1,1.7222433E-1,-4.75959E-3,1.0259624E-1,1.9155268E-1,2.4473763E-1,3.5653943E-1,1.8033497E-1,3.892983E-2,1.7369227E-1,2.6526025E-1,3.2425615E-1,3.0705762E-1,4.016173E-1,-7.131245E-2,-1.2041712E-2,4.0043697E-1,4.687813E-1,2.9616797E-1,5.5023956E-1,4.340659E-1,6.192424E-1],"categories":[],"categories_nodes":[],"categories_segments":[],"categories_sizes":[],"default_left":[0,0,0,0,0,0,0,0,0,0,0,0,0,0,0,0,0,0,0,0,0,0,0,0,0,0,0,0,0,0,0,0,0,0,0,0,0,0,0,0,0,0,0,0,0,0,0,0,0,0,0,0,0,0,0,0,0,0,0,0,0,0,0,0,0,0,0,0,0,0,0,0,0,0,0,0,0,0,0,0,0,0,0,0,0,0,0,0,0,0,0,0,0,0,0,0,0,0,0,0,0,0,0,0,0,0,0,0,0,0,0,0,0,0,0,0,0,0,0,0,0,0,0,0,0],"id":13,"left_children":[1,3,5,7,9,11,13,15,17,19,21,23,25,27,29,31,33,35,37,39,41,43,45,47,49,51,53,55,57,59,61,63,65,67,69,71,73,75,77,79,81,83,85,87,89,-1,91,93,95,97,99,101,103,105,107,109,111,113,115,117,119,121,123,-1,-1,-1,-1,-1,-1,-1,-1,-1,-1,-1,-1,-1,-1,-1,-1,-1,-1,-1,-1,-1,-1,-1,-1,-1,-1,-1,-1,-1,-1,-1,-1,-1,-1,-1,-1,-1,-1,-1,-1,-1,-1,-1,-1,-1,-1,-1,-1,-1,-1,-1,-1,-1,-1,-1,-1,-1,-1,-1,-1,-1,-1],"loss_changes":[1.9639588E5,3.5372188E4,4.244697E4,7.017492E3,3.4147134E3,5.7243594E3,7.9541406E3,8.807344E2,8.4852637E2,1.1702927E3,1.2711865E3,7.9732227E2,7.9927734E2,1.033E3,1.2934062E3,1.6897266E2,1.0513965E2,3.167168E2,4.3821838E2,3.3413898E2,3.4650146E2,3.3556982E2,5.06792E2,7.601885E2,3.6856836E2,2.0372266E2,5.763789E2,3.9562683E2,6.9775E2,2.0553906E2,1.4914102E3,1.8576172E1,4.741992E1,3.6992188E1,9.5706055E1,6.3611816E1,1.0340393E2,9.369214E1,2.0990805E2,6.852649E1,1.24372894E2,1.6520044E2,3.8993915E2,6.861597E1,1.59948E2,0E0,2.8486328E2,1.425332E2,2.0879395E2,1.15043945E2,2.6667188E2,2.1289844E2,3.3800293E2,8.1174164E1,4.3922266E2,1.0973706E2,1.2920892E2,2.0485352E2,5.4078125E2,4.7881937E-1,1.2144336E2,1.400437E2,4.3583594E2,0E0,0E0,0E0,0E0,0E0,0E0,0E0,0E0,0E0,0E0,0E0,0E0,0E0,0E0,0E0,0E0,0E0,0E0,0E0,0E0,0E0,0E0,0E0,0E0,0E0,0E0,0E0,0E0,0E0,0E0,0E0,0E0,0E0,0E0,0E0,0E0,0E0,0E0,0E0,0E0,0E0,0E0,0E0,0E0,0E0,0E0,0E0,0E0,0E0,0E0,0E0,0E0,0E0,0E0,0E0,0E0,0E0,0E0,0E0,0E0,0E0,0E0],"parents":[2147483647,0,0,1,1,2,2,3,3,4,4,5,5,6,6,7,7,8,8,9,9,10,10,11,11,12,12,13,13,14,14,15,15,16,16,17,17,18,18,19,19,20,20,21,21,22,22,23,23,24,24,25,25,26,26,27,27,28,28,29,29,30,30,31,31,32,32,33,33,34,34,35,35,36,36,37,37,38,38,39,39,40,40,41,41,42,42,43,43,44,44,46,46,47,47,48,48,49,49,50,50,51,51,52,52,53,53,54,54,55,55,56,56,57,57,58,58,59,59,60,60,61,61,62,62],"right_children":[2,4,6,8,10,12,14,16,18,20,22,24,26,28,30,32,34,36,38,40,42,44,46,48,50,52,54,56,58,60,62,64,66,68,70,72,74,76,78,80,82,84,86,88,90,-1,92,94,96,98,100,102,104,106,108,110,112,114,116,118,120,122,124,-1,-1,-1,-1,-1,-1,-1,-1,-1,-1,-1,-1,-1,-1,-1,-1,-1,-1,-1,-1,-1,-1,-1,-1,-1,-1,-1,-1,-1,-1,-1,-1,-1,-1,-1,-1,-1,-1,-1,-1,-1,-1,-1,-1,-1,-1,-1,-1,-1,-1,-1,-1,-1,-1,-1,-1,-1,-1,-1,-1,-1,-1],"split_conditions":[6.857143E0,3.5714285E0,1.3428572E1,2.0714285E0,5.071429E0,9.2E0,1.9142857E1,1.5454545E0,2.7142856E0,1E0,1E0,1E0,1.0857142E1,8.350877E0,2.2357143E1,1.25E0,1E0,1E0,1E0,3.0271268E0,4.6164074E0,4.576324E0,2.4019608E0,6.6314497E0,2.022E3,1E0,5.431169E0,2E0,4E0,8.496689E0,1.4529033E1,1.1428572E0,1E0,1.1875E1,2.022E3,2.408284E0,2E0,3.34E0,2.82562E0,2.248731E0,6.2512317E0,4E0,8E0,2.248731E0,5.5E0,8.7359965E-1,4E0,1.802E3,7.5E0,8.571428E0,8.571428E0,2.3E1,5.431169E0,2.009E3,5E0,1.4285714E1,7.2146835E0,1.6857143E1,1E0,2E0,1E0,1E0,7.7456794E0,-6.839107E-2,-6.4040616E-2,-6.0902406E-2,-5.484402E-2,-5.077214E-2,1.6725786E-1,-4.7765296E-2,-3.7496336E-2,-4.196186E-2,-3.3471763E-2,-3.413646E-2,-2.1095995E-2,-2.6046732E-2,-1.4049219E-2,-1.0367918E-2,1.1921684E-2,-2.9396048E-2,-3.6716312E-3,1.2518272E-2,4.505403E-2,1.6554575E-2,3.4910265E-2,7.105064E-2,4.2523882E-1,1.2805259E-1,2.056032E-2,2.7135506E-2,5.3474467E-2,6.300882E-2,9.110836E-2,-1.8412067E-3,7.036175E-2,8.2603596E-2,1.2142052E-1,1.02593064E-1,1.3535084E-1,1.3558935E-1,1.9688001E-1,1.4589669E-1,6.7244494E-1,3.8895893E-1,1.7222433E-1,-4.75959E-3,1.0259624E-1,1.9155268E-1,2.4473763E-1,3.5653943E-1,1.8033497E-1,3.892983E-2,1.7369227E-1,2.6526025E-1,3.2425615E-1,3.0705762E-1,4.016173E-1,-7.131245E-2,-1.2041712E-2,4.0043697E-1,4.687813E-1,2.9616797E-1,5.5023956E-1,4.340659E-1,6.192424E-1],"split_indices":[14,14,14,14,14,14,14,14,14,4,4,4,14,9,14,14,4,4,4,10,10,9,9,9,5,4,9,2,2,9,9,14,4,9,5,9,2,9,10,9,9,14,7,9,14,0,2,6,14,14,14,11,9,6,2,14,10,14,4,2,4,4,10,0,0,0,0,0,0,0,0,0,0,0,0,0,0,0,0,0,0,0,0,0,0,0,0,0,0,0,0,0,0,0,0,0,0,0,0,0,0,0,0,0,0,0,0,0,0,0,0,0,0,0,0,0,0,0,0,0,0,0,0,0,0],"split_type":[0,0,0,0,0,0,0,0,0,0,0,0,0,0,0,0,0,0,0,0,0,0,0,0,0,0,0,0,0,0,0,0,0,0,0,0,0,0,0,0,0,0,0,0,0,0,0,0,0,0,0,0,0,0,0,0,0,0,0,0,0,0,0,0,0,0,0,0,0,0,0,0,0,0,0,0,0,0,0,0,0,0,0,0,0,0,0,0,0,0,0,0,0,0,0,0,0,0,0,0,0,0,0,0,0,0,0,0,0,0,0,0,0,0,0,0,0,0,0,0,0,0,0,0,0],"sum_hessian":[1.10601E5,